{"layers":[{"out_depth":2,"out_sx":7,"out_sy":6,"layer_type":"input"},{"sx":2,"sy":2,"stride":1,"in_depth":2,"out_depth":16,"out_sx":6,"out_sy":5,"layer_type":"conv","l1_decay_mul":0,"l2_decay_mul":1,"pad":0,"filters":[{"sx":2,"sy":2,"depth":2,"w":{"0":-0.05406172364602985,"1":-0.17004214569459133,"2":0.3858642181770443,"3":0.7746147252469078,"4":-0.7476687155162184,"5":-0.29652576233730515,"6":0.06840917540983284,"7":-0.569503535683161}},{"sx":2,"sy":2,"depth":2,"w":{"0":-0.03371045503265389,"1":0.33879402797188946,"2":-0.3376388226357906,"3":0.45538687847925674,"4":0.40476257605715327,"5":0.31391590180042944,"6":-0.05284315949400849,"7":0.49825194595933897}},{"sx":2,"sy":2,"depth":2,"w":{"0":-0.8289815613457671,"1":0.30541579617248077,"2":0.11076980011644318,"3":0.3833620366621742,"4":0.24386923091889362,"5":0.47349165795075965,"6":-0.6847486335752642,"7":0.7202242668750242}},{"sx":2,"sy":2,"depth":2,"w":{"0":1.2709166721902516,"1":0.07403448440309762,"2":0.24899566562711697,"3":0.6133350772227646,"4":0.02276299650690158,"5":0.18177455667501932,"6":-0.07447597540817887,"7":-0.31920541734145713}},{"sx":2,"sy":2,"depth":2,"w":{"0":-0.578879624012892,"1":0.5069404225443587,"2":-0.511078461100081,"3":-0.0892163623804626,"4":0.2568576142579967,"5":-0.38891358293855116,"6":-0.20400152472230693,"7":0.03837339670392442}},{"sx":2,"sy":2,"depth":2,"w":{"0":0.03691739490473701,"1":0.29104649955537365,"2":-0.2884193515091766,"3":-0.22601763865198188,"4":0.12061516193777012,"5":-0.03187651575843628,"6":0.8286752972960324,"7":1.116634718611996}},{"sx":2,"sy":2,"depth":2,"w":{"0":-0.4828762268608281,"1":-0.10064243443373042,"2":-0.06071646817964835,"3":0.06175296482666271,"4":0.6213864165593358,"5":0.6630383087294331,"6":-0.6595372802679086,"7":-0.006400013233669357}},{"sx":2,"sy":2,"depth":2,"w":{"0":0.23663967689726959,"1":-0.7000813013948688,"2":0.26110399562122794,"3":-0.013533543964366516,"4":0.42014952327221977,"5":-0.6072079643639936,"6":-0.36083501773026194,"7":-0.22063173078186765}},{"sx":2,"sy":2,"depth":2,"w":{"0":-0.15118114836021848,"1":0.0014650331416261242,"2":-0.010136006037658088,"3":-0.36931562116972133,"4":0.23204924662286658,"5":-0.866411512901989,"6":0.7230802805004158,"7":-0.118234421400091}},{"sx":2,"sy":2,"depth":2,"w":{"0":0.4869414401345254,"1":0.4930542731350349,"2":0.4988522368261205,"3":0.005372767497603405,"4":-0.0549729673742369,"5":-0.4865881213143287,"6":0.8327260288142103,"7":-0.21419151846469545}},{"sx":2,"sy":2,"depth":2,"w":{"0":0.0686365782669512,"1":-1.0116961733317391,"2":0.40585982472147814,"3":0.9731205431568863,"4":0.7516307464231085,"5":-0.10811613444453304,"6":0.6146071298467014,"7":-0.6758027486389929}},{"sx":2,"sy":2,"depth":2,"w":{"0":0.2445264222314683,"1":0.3440493474228285,"2":-0.7074415404791171,"3":0.31318614623296925,"4":0.14291902305477017,"5":-0.09760116865616798,"6":-0.16778200992571535,"7":-0.16345074854369274}},{"sx":2,"sy":2,"depth":2,"w":{"0":-0.7713426375551922,"1":0.7954780740391371,"2":0.2165929772007521,"3":-0.09467896206205774,"4":-0.389371836160186,"5":-0.10509475232105094,"6":-0.15207278535875066,"7":-0.42547723347529803}},{"sx":2,"sy":2,"depth":2,"w":{"0":-0.13358185778212803,"1":-0.23697657892438015,"2":-0.19838006974011088,"3":-0.2370879487944937,"4":0.38520768712910775,"5":-0.28155989542694104,"6":-0.048955416385000984,"7":-0.25445151624572626}},{"sx":2,"sy":2,"depth":2,"w":{"0":0.1820709756445079,"1":-0.07897806665347908,"2":-0.22552327907535716,"3":0.3149016752165117,"4":0.506292944740773,"5":0.5253735751178727,"6":0.32645459880758065,"7":0.6346348220271462}},{"sx":2,"sy":2,"depth":2,"w":{"0":0.3292155543059975,"1":-0.201670759251109,"2":-0.46458949869472427,"3":0.8719617575314372,"4":-0.4624441221421092,"5":0.5584360229175264,"6":0.4162166043336311,"7":-0.2935943499128131}}],"biases":{"sx":1,"sy":1,"depth":16,"w":{"0":0.1840689991443308,"1":0.0703824566295315,"2":0.08503765188994065,"3":0.12388736279089543,"4":0.09041310033592742,"5":0.12911056106453947,"6":-0.0000348800040446926,"7":0.20181626234166256,"8":0.20034664819048906,"9":0.11779525308242213,"10":0.17092183621301998,"11":0.11908081880975596,"12":0.10267558857069296,"13":0.363285788419424,"14":0.09694767128216736,"15":0.33311762957092633}}},{"out_depth":16,"out_sx":6,"out_sy":5,"layer_type":"relu"},{"sx":2,"sy":2,"stride":1,"in_depth":16,"out_depth":32,"out_sx":5,"out_sy":4,"layer_type":"conv","l1_decay_mul":0,"l2_decay_mul":1,"pad":0,"filters":[{"sx":2,"sy":2,"depth":16,"w":{"0":-0.16839332257336276,"1":0.0004863734656133247,"2":-0.22449083425997063,"3":0.0659170311392731,"4":-0.05179041151221622,"5":0.22437580070472626,"6":-0.2101115382234036,"7":-0.03111818486405757,"8":-0.17488912751872285,"9":-0.15000979668122016,"10":-0.12375640372933668,"11":-0.11500438675575086,"12":0.014893416659417737,"13":-0.04852145366271294,"14":0.27684481142198064,"15":0.22110918777774,"16":-0.05109951446162784,"17":-0.07263767622476365,"18":0.16932030458356642,"19":-0.15405779718892113,"20":-0.23740035829328135,"21":0.020006409584221597,"22":0.06075691548776183,"23":-0.1402316052217645,"24":0.3282161358960621,"25":0.07818708997963993,"26":0.18584536977225777,"27":0.01860670803976269,"28":-0.2718484225950484,"29":0.3728609185529582,"30":0.14545729729164894,"31":-0.3403185036331542,"32":0.27217454957368176,"33":0.0961661771873541,"34":0.14820880948207965,"35":0.06716689988946284,"36":-0.2350829381529816,"37":0.053813091119956705,"38":-0.19778571670649797,"39":-0.31302839957437467,"40":-0.45028472448242424,"41":0.2967749927488013,"42":-0.16194043810168549,"43":-0.2297141575474792,"44":0.17933088213913115,"45":-0.27224527031972645,"46":-0.15015978800758592,"47":-0.22356434178716145,"48":0.056667224108653394,"49":0.002052945659917345,"50":-0.20799262086319328,"51":0.3892041673978823,"52":-0.2813894646943593,"53":0.26288175975625105,"54":-0.20059536247053883,"55":-0.032776130660692605,"56":-0.33913869675845515,"57":0.22953378026688426,"58":0.006765092457001069,"59":0.1106551403550986,"60":-0.38168815260683897,"61":-0.16137439645146961,"62":0.20166190883430316,"63":0.2979335897462058}},{"sx":2,"sy":2,"depth":16,"w":{"0":0.10088964660858742,"1":0.04104714302479178,"2":0.02109329593772391,"3":0.03968475031249029,"4":-0.08816080447947311,"5":0.11239931051924813,"6":0.010994937340143377,"7":-0.058595271610004655,"8":-0.18658899427846756,"9":0.06113696030751707,"10":0.04165582403087242,"11":-0.3914420946232764,"12":0.016103555125733457,"13":0.008656834587452275,"14":0.0018092302507191895,"15":-0.10128239598476788,"16":0.07035576146483338,"17":-0.2747827118030142,"18":-0.2902460670590785,"19":0.18527458720176598,"20":-0.1510316214450934,"21":-0.3356288273710265,"22":-0.20835215082387964,"23":0.002320226895021147,"24":-0.12894961666550342,"25":0.4401774721471193,"26":-0.04298621348728214,"27":-0.3297262051686284,"28":-0.0844251595830586,"29":-0.22073473177534078,"30":-0.03830615756353061,"31":-0.07066904682552103,"32":-0.04918241855928849,"33":0.31116839396393603,"34":0.33336626396148394,"35":-0.1156061528359858,"36":-0.0479146941012741,"37":0.3649946295420605,"38":-0.124553599924643,"39":-0.17678297317058086,"40":-0.2395056368108818,"41":-0.1511737874081443,"42":-0.16882791729733837,"43":-0.32711638829063844,"44":-0.0487984248567644,"45":-0.2611350652117801,"46":0.23334027513551828,"47":0.24450138023830212,"48":-0.07148842218245681,"49":0.08744023110908122,"50":0.1092872084560658,"51":-0.17949237301748552,"52":-0.18508392199139787,"53":0.30591314483405785,"54":0.3266454153193112,"55":-0.042265902955928455,"56":-0.21039671725116574,"57":-0.21466422431823648,"58":0.08824654116042635,"59":0.1601199749673813,"60":0.10612689833531085,"61":-0.09097522748773554,"62":0.17109393278489562,"63":-0.14418216403345163}},{"sx":2,"sy":2,"depth":16,"w":{"0":-0.038763666069147364,"1":0.12351857268847392,"2":-0.2163827067767368,"3":0.3846588795334425,"4":0.14120788917693008,"5":0.3440604097307056,"6":-0.441552573415232,"7":0.21622014614182508,"8":-0.2514669598639835,"9":-0.15888622387302037,"10":-0.14292048059041096,"11":0.558447894054766,"12":0.03822589061774365,"13":-0.015608211734889977,"14":-0.040477433203235096,"15":0.5431391342768991,"16":-0.11169627204120285,"17":0.4032598404722366,"18":0.590366983451032,"19":-0.2510879340773392,"20":-0.1833018459820946,"21":0.10893220205244802,"22":0.6277394319799756,"23":-0.24999233737564158,"24":0.10315096872110167,"25":-0.18964555447110676,"26":0.20805056271416725,"27":0.06072361835876518,"28":-0.014298587508004274,"29":0.1210009523399814,"30":0.14240692982057399,"31":-0.03323084460819448,"32":0.05979492224280549,"33":0.1102821029552494,"34":0.05075229355740048,"35":0.27838447332208943,"36":-0.1865154936738595,"37":-0.17685771665537822,"38":-0.16743094588172386,"39":0.11422215287651778,"40":-0.027546756060340225,"41":0.07691700786825238,"42":-0.01993447702590001,"43":-0.16537575088519904,"44":0.25949116921511045,"45":-0.036796845062055106,"46":-0.19604071472223292,"47":-0.07788454992362755,"48":-0.003649796403462923,"49":0.22482646510944662,"50":0.08570251219378425,"51":0.1728377887495307,"52":-0.1861941907381903,"53":-0.1210369024242244,"54":0.006649770952507072,"55":-0.009657299936757553,"56":-0.1815425766957113,"57":0.05718118463515644,"58":-0.22673174292086204,"59":0.30427847701242583,"60":-0.057031703756637304,"61":-0.2647465594590584,"62":-0.021135853046582845,"63":0.018345802850799123}},{"sx":2,"sy":2,"depth":16,"w":{"0":0.17126669502580932,"1":-0.21387036595780962,"2":-0.24554821558286055,"3":0.18994283999431402,"4":0.06467070976307282,"5":0.02706456504691265,"6":-0.04827598098733261,"7":-0.05387704017089798,"8":0.1478127638409012,"9":0.1164249993992884,"10":0.14367375747593147,"11":0.006371136208853971,"12":-0.10125875766867345,"13":0.05392640232495129,"14":-0.0625720701067362,"15":-0.002953357861644793,"16":0.024621701904823545,"17":-0.1288710802032885,"18":0.14057676716435355,"19":0.03540751654823193,"20":0.14296860323460792,"21":0.017093054789867522,"22":-0.24413214806769307,"23":0.10878989616922537,"24":0.07684535454255133,"25":-0.10281166324915185,"26":0.049604495215622574,"27":-0.14086294151470413,"28":-0.2990592479440791,"29":0.19854525028464043,"30":0.19031452796295298,"31":0.0716455970537296,"32":0.04333082166388486,"33":-0.07913741232722234,"34":-0.276347151741615,"35":-0.03551158210875881,"36":0.053877760657666064,"37":-0.1878257857970396,"38":-0.17934545718697228,"39":-0.08509870158257335,"40":-0.09863122411884405,"41":0.1188964498816226,"42":0.3638271509156423,"43":-0.10050850291902107,"44":-0.11320083298945817,"45":-0.058972471747912404,"46":0.1545452558450537,"47":0.13184480482794242,"48":0.021724228430969095,"49":-0.22796245481614005,"50":-0.3131406537237725,"51":0.2085462685113924,"52":0.021007151705224155,"53":0.24720499898991483,"54":-0.02280896489257888,"55":0.09961158996465852,"56":-0.06917529555638782,"57":0.21875580671182965,"58":0.25478704896968324,"59":-0.0799241922737634,"60":0.16343941152862126,"61":0.06517409359309005,"62":0.19114813116322146,"63":0.060736428641963526}},{"sx":2,"sy":2,"depth":16,"w":{"0":0.23632193861386327,"1":-0.023266294362612273,"2":0.07295398276139789,"3":-0.06475119858228047,"4":0.3208055118554138,"5":0.01279640883204919,"6":-0.1901322987178889,"7":0.19163037699049626,"8":0.2748080253125745,"9":0.14250171371294468,"10":0.4560625007081727,"11":0.222039556538519,"12":-0.09248886932399043,"13":0.05508843769145199,"14":-0.0761625908944375,"15":0.30771584806097196,"16":-0.09164347249792232,"17":-0.08881670469930267,"18":0.2541972408843212,"19":0.13155471051970208,"20":0.2045703588142465,"21":0.13952750129630626,"22":-0.055862592280742744,"23":0.07122303309407238,"24":0.24386784615016996,"25":0.23710144455102133,"26":0.12036335918822397,"27":0.10114969599467526,"28":0.5327989027720373,"29":-0.0008940950438930112,"30":0.027197145674401523,"31":-0.09409662771963466,"32":0.044867105370359546,"33":-0.11440898489796604,"34":-0.11412086904246688,"35":-0.2714339107191958,"36":-0.0756155230369331,"37":-0.26950343636728114,"38":0.19975600178976394,"39":-0.18685972099702258,"40":0.09293335777502366,"41":-0.07535549913523003,"42":0.1328024327527244,"43":-0.36896751909475495,"44":0.10853099652747474,"45":-0.36076995096356645,"46":-0.02917945097313079,"47":0.3337088767911681,"48":0.2124545248138919,"49":-0.0037843021289808943,"50":0.12781754253602667,"51":-0.13542622751081718,"52":-0.11989354473261661,"53":0.11591139141705512,"54":-0.09297338466399004,"55":0.23116334881109238,"56":0.1309752156593593,"57":-0.17075279659220474,"58":0.07652074308792711,"59":0.06317166658759306,"60":-0.08495958312816397,"61":0.16513425030183754,"62":-0.0680873213768359,"63":-0.21907406514190422}},{"sx":2,"sy":2,"depth":16,"w":{"0":0.1001884388062338,"1":-0.0062215517918385015,"2":-0.08744679724989182,"3":0.1589287557872682,"4":-0.11773359507028154,"5":0.13326479725461887,"6":-0.2258191692217833,"7":-0.061309483395920475,"8":-0.062403996761155905,"9":0.10200370858793194,"10":0.21035881500754583,"11":-0.1387347066359832,"12":-0.2746193226881902,"13":0.06802804734812563,"14":0.19158625428283763,"15":-0.07940469773871515,"16":0.24209547324230216,"17":-0.03174821827858552,"18":0.023927019176421125,"19":0.07713968637605843,"20":-0.01813012758761126,"21":-0.09919864584940086,"22":0.031060825580109763,"23":0.2178996101178994,"24":0.07879180945244017,"25":-0.08009181651826973,"26":0.34694968755681194,"27":-0.09335081738272413,"28":-0.10267060984856773,"29":0.18646449181788732,"30":0.11346755545877013,"31":0.19272716474653084,"32":0.03811860885660558,"33":-0.14941963333494715,"34":-0.12043365925739657,"35":0.2495610767608309,"36":-0.16319122609889725,"37":0.06238476589904923,"38":0.0011753613608530443,"39":-0.2386360907550785,"40":-0.23820584018183447,"41":0.2555458090717296,"42":-0.23113110041133295,"43":-0.0861501719374819,"44":-0.28784457425365395,"45":-0.269157634270629,"46":-0.10424365395369481,"47":0.10854589018528993,"48":0.006301897665449862,"49":-0.07925768472254481,"50":-0.23031282183581261,"51":0.1511009588437631,"52":-0.03434348769826194,"53":-0.01444126101765183,"54":-0.3797255457833628,"55":0.06639779161382876,"56":0.005463423496336289,"57":-0.03836290698106442,"58":-0.10304804703123586,"59":0.08201551020781943,"60":-0.2162636229300092,"61":0.043149922894252145,"62":0.3112131036242181,"63":-0.17610757855923143}},{"sx":2,"sy":2,"depth":16,"w":{"0":0.1798754873250232,"1":0.22511257180269958,"2":0.1575027804132613,"3":0.003910433808397031,"4":-0.18259547389325748,"5":-0.3558674468036151,"6":0.042940952949478535,"7":0.18113342849781766,"8":0.18555065671935894,"9":-0.05809948467781613,"10":0.3906299182622389,"11":0.003880839449569523,"12":-0.2500524267061613,"13":-0.1019878776072383,"14":-0.009323325373455003,"15":0.16713723421077734,"16":-0.19789705273240585,"17":0.2087390018987328,"18":-0.053849310752318,"19":0.1389614913429096,"20":0.11152644659864139,"21":0.500491647554357,"22":-0.2609792566105282,"23":0.16891181880416983,"24":-0.07308734510585545,"25":0.19081190974040763,"26":-0.21971339784134813,"27":0.009677409396006524,"28":-0.2679240823318922,"29":0.06536926939142984,"30":0.01996750537035082,"31":-0.21783490989695764,"32":-0.16459596672962795,"33":0.05864040436081452,"34":-0.10164457912719836,"35":0.035939538530683525,"36":0.022867158947021182,"37":-0.011470666919063864,"38":0.30696311777926333,"39":0.16080115827613028,"40":0.23471637899314912,"41":-0.03664385451712784,"42":0.3425574745224564,"43":0.24284898109954742,"44":0.24650057421817897,"45":0.20493902604961814,"46":0.14106651053453714,"47":-0.20642723684765735,"48":0.44018471686421706,"49":0.15350200245360987,"50":0.10844938637064898,"51":0.03695130642830434,"52":-0.2252683276288934,"53":-0.19167809501625646,"54":0.14950845358451031,"55":-0.10563478005542862,"56":-0.08195887634912433,"57":-0.1910902752559224,"58":0.44350767982048334,"59":-0.13393032570100202,"60":0.026781524532496454,"61":-0.17762406208275172,"62":0.11656500027783846,"63":0.20429602551032555}},{"sx":2,"sy":2,"depth":16,"w":{"0":0.2663968490700897,"1":0.20440543395396682,"2":0.21498198606053773,"3":0.09767376480783686,"4":-0.025280173018790483,"5":-0.18854827916399658,"6":-0.3010890324107636,"7":0.013368329662304775,"8":-0.35963088939999277,"9":-0.17164771981198218,"10":0.08075918764979173,"11":0.26415844039838654,"12":0.34954956464612535,"13":-0.2441837723589888,"14":0.05588294444936989,"15":0.15643168688383938,"16":-0.3356363887197664,"17":0.18051918568827907,"18":0.2566447455267586,"19":-0.060092977642470985,"20":-0.06864749163140747,"21":0.18999076543923019,"22":-0.009941798294128073,"23":0.015446892090280386,"24":0.03821692972443542,"25":0.15357968473508374,"26":-0.2479208468514365,"27":-0.11891483585050211,"28":-0.022125740915070066,"29":-0.13030817927842023,"30":0.35909852662665026,"31":-0.015857396208242853,"32":0.17424532066664025,"33":0.22530244430602714,"34":-0.036904417930208794,"35":-0.058614759522423523,"36":-0.13969246692093634,"37":-0.06175473298448261,"38":0.2371348344215785,"39":-0.23519403475536474,"40":0.09469723432678542,"41":0.10211823882495834,"42":-0.07312903819008562,"43":0.22626554861917644,"44":0.016061568759813058,"45":0.019879908901616415,"46":0.044149474556223374,"47":-0.19099022624019316,"48":0.22099772724069836,"49":0.20120958039603823,"50":0.19376315053018406,"51":0.07435916652832733,"52":0.15997114429275294,"53":0.04927667013743992,"54":0.011299894992641198,"55":0.0657475155929218,"56":-0.12387594409751411,"57":-0.1112454374127375,"58":0.006447727272911714,"59":0.014837185770012593,"60":0.03756895003308153,"61":0.21733735092134215,"62":-0.046670741445479405,"63":0.2600592944333846}},{"sx":2,"sy":2,"depth":16,"w":{"0":0.23383203723497947,"1":0.2525734753786884,"2":0.08494860574988511,"3":0.09093627296777207,"4":-0.11765334739285861,"5":0.22315505509712072,"6":-0.05268502768646248,"7":-0.20866203238446657,"8":-0.07708866131535112,"9":-0.03380342388494273,"10":0.01584179938908649,"11":0.18855508746022942,"12":-0.060149484901341636,"13":-0.23152495066362352,"14":0.08746670583553738,"15":0.1365874911797292,"16":0.016968391583862878,"17":0.2553900860862989,"18":0.3394565450569454,"19":-0.40431267616687927,"20":-0.20851134336265803,"21":0.03798898659460925,"22":0.390343459681527,"23":-0.029382043948348993,"24":-0.5551803931051381,"25":-0.07202985016259152,"26":-0.08504579640094208,"27":0.13098406637808496,"28":0.0864580858845495,"29":-0.16373619966136826,"30":0.045179233498399536,"31":-0.10469522347164309,"32":-0.035678639416946836,"33":0.28582426040909953,"34":0.15194263315544856,"35":-0.12133490847678483,"36":-0.11397515576051065,"37":0.02255822655581545,"38":0.3440388580011495,"39":-0.1846557186186832,"40":0.09123913213870102,"41":-0.16190093202151562,"42":0.34035933278469666,"43":0.2009193533994903,"44":-0.21117388208511503,"45":0.09720783963361129,"46":0.11996575890675958,"47":-0.02615412728062654,"48":0.03496467383699643,"49":0.1304240220827178,"50":0.040972276760321204,"51":0.06059578550596935,"52":0.2753210882190129,"53":0.19257503506150916,"54":-0.026784674022674253,"55":-0.0709375644824752,"56":0.016494274910802728,"57":-0.20982263094885661,"58":-0.23302455391645155,"59":-0.12288901450308701,"60":0.12587745222781982,"61":0.013469580996274997,"62":-0.003551398454819144,"63":0.23006656914653953}},{"sx":2,"sy":2,"depth":16,"w":{"0":0.4677794598786132,"1":-0.05697700220629726,"2":0.2524347939311064,"3":-0.2279202842046004,"4":0.34126354737579856,"5":0.21231886087539711,"6":0.17090370677940195,"7":0.34385795168074845,"8":-0.11638601041858837,"9":-0.09978537633473933,"10":0.1599486700684565,"11":0.05035212094499468,"12":0.17436170536344212,"13":0.07711449304120822,"14":0.18311211907260544,"15":0.22978175221455868,"16":-0.17157753684674326,"17":-0.23503748302445446,"18":-0.16268627374251626,"19":0.09828547274831527,"20":-0.0032789059655079548,"21":0.07174267805740145,"22":-0.35886525606674163,"23":0.2704132530660784,"24":0.1554884383221704,"25":0.053945817148369636,"26":-0.034699074498783886,"27":0.09124606578506587,"28":0.2199814581320485,"29":0.27077591132418743,"30":-0.2914224955264633,"31":0.2797829850394364,"32":-0.09037822986034362,"33":-0.11996291332361822,"34":0.14976366940797825,"35":0.07954283818239198,"36":0.1762037407470377,"37":0.04183455668776301,"38":-0.13547482606237116,"39":0.2168426814292508,"40":-0.11267919465206241,"41":-0.01658581599326578,"42":-0.2780723896342835,"43":-0.03482891789488989,"44":0.15447811637070105,"45":-0.007363476342816824,"46":-0.005705243961780669,"47":-0.029367056830022883,"48":-0.10466588014492456,"49":-0.04064120380244755,"50":0.16167106955189786,"51":0.049394659333136665,"52":0.04583448369691983,"53":-0.1765532221948457,"54":0.26679423150541964,"55":0.020799232349529417,"56":-0.14961698155684863,"57":-0.28340666415333415,"58":-0.2523134095202482,"59":-0.1991502330703213,"60":-0.20940321273019902,"61":-0.14421209974887927,"62":0.017548675848429358,"63":-0.03814972247244559}},{"sx":2,"sy":2,"depth":16,"w":{"0":0.22374870935757815,"1":0.20713321999851192,"2":0.1577070481318374,"3":0.19423422317682734,"4":0.06592037539498781,"5":-0.10777483106238875,"6":0.2047032473014011,"7":-0.16805137349574636,"8":0.0688408035161064,"9":-0.24213286002325782,"10":0.23372959709368388,"11":0.1107243835886422,"12":-0.433462911292717,"13":-0.3763721737960121,"14":0.13939636223523336,"15":0.18637565358307048,"16":-0.2898590378393687,"17":0.316308125177937,"18":0.14954706153620154,"19":-0.09707599882067891,"20":0.44699191543992567,"21":0.19001818621058036,"22":0.02331041752043379,"23":-0.10310253475204967,"24":0.007333225156996476,"25":0.07807136073568711,"26":-0.429549237497557,"27":0.17938783304996203,"28":0.2128132258479302,"29":-0.39537167493321695,"30":-0.0914974896554433,"31":-0.07250430531300767,"32":-0.4313306092821041,"33":0.08770825071968834,"34":0.3020031514987882,"35":-0.1469516550354413,"36":-0.11344904748832348,"37":0.10319288349773433,"38":0.12973564379236707,"39":-0.32882000983783055,"40":-0.11248076711560144,"41":0.015381766625916917,"42":-0.1518046450258794,"43":-0.0538709848694613,"44":0.10002500357710269,"45":-0.27378753110657644,"46":0.03455009759605768,"47":0.14568356034474114,"48":-0.15548730409043385,"49":0.10550141255419755,"50":0.3133944539553616,"51":-0.018940481243665912,"52":0.024933520253176047,"53":0.04754510158230731,"54":0.16168549415051844,"55":-0.13966848994731104,"56":-0.3525955994907345,"57":0.06774751955112368,"58":0.21375940264913945,"59":-0.1095173592188779,"60":0.028397407402861806,"61":-0.26904008497506765,"62":0.12284353606646359,"63":0.03400446911996}},{"sx":2,"sy":2,"depth":16,"w":{"0":-0.1452756436557589,"1":-0.11722016716472035,"2":-0.17445494907213044,"3":-0.3761711729003819,"4":-0.11029646124130545,"5":-0.1986637676239023,"6":0.3629466645151936,"7":-0.26185164007245987,"8":-0.07943297594551177,"9":0.04673140154776111,"10":0.19521783118520664,"11":-0.08243186374816584,"12":0.04154667256617544,"13":0.10442991415441397,"14":-0.04728903677347591,"15":0.26135468201237616,"16":-0.11256055589897396,"17":0.05393641702782518,"18":-0.09107908178215075,"19":-0.16902819121798235,"20":0.1514566557678678,"21":0.3338929595966381,"22":-0.18657998032086698,"23":0.09598444342981476,"24":0.32536791962634837,"25":0.2518302691385645,"26":-0.16685762818568312,"27":-0.0408058997587663,"28":0.1900061955004981,"29":-0.035116485834444024,"30":-0.06047587935178723,"31":-0.20701797430053073,"32":0.14268398216390543,"33":0.08897536211719072,"34":0.022295838314671128,"35":-0.006225635250919944,"36":0.09066536955431453,"37":0.06939728883101418,"38":0.09338026405590852,"39":0.1338658104249409,"40":0.2042810874584398,"41":0.1602155580260994,"42":0.04409613764654856,"43":0.3975739414034739,"44":0.143554953778851,"45":0.0335848760101062,"46":-0.049777872829190696,"47":-0.26651589508250206,"48":0.03541857562637848,"49":0.1021692687028345,"50":0.042984052591140166,"51":0.03574082603919516,"52":0.0019417489811908223,"53":-0.05555701474489204,"54":0.051582382203405205,"55":-0.10771366032850302,"56":-0.006683965326351597,"57":0.010504697793360947,"58":0.0723983547616605,"59":-0.08211112113477749,"60":-0.05182848420647033,"61":-0.005792850405694241,"62":0.08452171864919406,"63":-0.08423964871348959}},{"sx":2,"sy":2,"depth":16,"w":{"0":-0.05359762242159165,"1":-0.022457524798128372,"2":0.05405665457854181,"3":0.18581321867894698,"4":0.07259998532469619,"5":-0.0016189189030483696,"6":0.0069545012162522514,"7":-0.1925281607749658,"8":-0.23493847090053535,"9":0.11949314087827057,"10":0.15412399509029273,"11":-0.11305639730682789,"12":0.042675123596639705,"13":-0.0540839041817659,"14":-0.07724926166023235,"15":-0.12447864580104673,"16":-0.17615190337551778,"17":0.04965466204148069,"18":-0.049690929134988654,"19":0.4444776713074487,"20":0.07707335318782443,"21":-0.1697253271936324,"22":0.0657579567172417,"23":-0.0148212298980365,"24":0.006584767580838225,"25":-0.18652740698586623,"26":-0.3082405713625129,"27":0.13212830188553515,"28":0.04386892335273978,"29":-0.10734584592181229,"30":0.0888861863126791,"31":0.21766321563068253,"32":0.3093656741276838,"33":-0.23523295306815498,"34":-0.19687403767293726,"35":0.3971994043240152,"36":-0.054264042151163566,"37":-0.21515791963542144,"38":-0.3747010804690955,"39":-0.3515767867860957,"40":0.20778213027205314,"41":0.2441418232490824,"42":0.3163795443524515,"43":-0.07779788368798504,"44":-0.3713096457657419,"45":-0.15825493552289238,"46":-0.2898002403360331,"47":0.2738329568735184,"48":-0.3415354192857682,"49":0.3047457705893903,"50":-0.11597869630940918,"51":-0.013726032822567178,"52":0.39086970459967524,"53":0.4488933115705353,"54":-0.09789879936556069,"55":0.11273386405015527,"56":0.0477174949314971,"57":0.11729236171888786,"58":-0.09618797485607945,"59":0.23730729173277143,"60":0.40134546880603844,"61":0.18102275130420897,"62":-0.03868905106513721,"63":-0.16127899660912398}},{"sx":2,"sy":2,"depth":16,"w":{"0":0.051852034727838524,"1":-0.007575357132804367,"2":-0.10597466166022043,"3":-0.14249238847797702,"4":-0.08953982814229164,"5":0.0071977475029591145,"6":-0.21586784294773587,"7":0.07403593930626624,"8":-0.16432561086248654,"9":0.038007894796252314,"10":-0.03685309632727044,"11":0.10274224564491874,"12":-0.19507828302022204,"13":0.07898793746364928,"14":-0.05365790083492105,"15":-0.40545025498551457,"16":0.12260403096339047,"17":0.03351567111128957,"18":-0.2989391208647829,"19":0.07628106365601191,"20":-0.08721487377570837,"21":0.2865241210617009,"22":-0.15923178753205985,"23":-0.10460408238420678,"24":-0.12328578933233605,"25":-0.05873698971265882,"26":0.23848404162097064,"27":-0.15479165819098537,"28":-0.3641667860047418,"29":-0.128072856677062,"30":0.022369750421872225,"31":0.25105855665250876,"32":-0.011694611381025016,"33":0.28513873559173863,"34":0.0011062133274074653,"35":0.10048856307284001,"36":-0.12528133280045847,"37":0.06250083383688877,"38":0.04674264791850681,"39":-0.05575607251022355,"40":-0.128083573215734,"41":0.109612598558364,"42":0.12533768506709134,"43":-0.22685355476775565,"44":-0.19730819568382324,"45":-0.309216428683663,"46":0.34081218479243114,"47":0.18633346099226109,"48":-0.00793832777246226,"49":0.1258729847992511,"50":0.009208893946492313,"51":-0.094427759522818,"52":0.06643271298741191,"53":0.19755096631070515,"54":-0.12648280647979232,"55":-0.36676307274238257,"56":0.08437691253700243,"57":0.15610961479147903,"58":0.15285931117678986,"59":-0.18606367458837333,"60":0.20236611395962403,"61":-0.24475935973993931,"62":0.19526345124210315,"63":-0.28088398324244934}},{"sx":2,"sy":2,"depth":16,"w":{"0":0.02158337708315864,"1":0.05830034624755755,"2":0.07235050621403993,"3":0.24267616205545942,"4":-0.2206865129345029,"5":-0.11496504339171909,"6":-0.029646306952278118,"7":-0.1855331423381907,"8":-0.16256114559666066,"9":0.14122830880547652,"10":-0.010603266800349011,"11":-0.021479024099337732,"12":0.2192136801030015,"13":-0.17614570785206612,"14":0.12064501250144093,"15":0.18616725505043055,"16":-0.09865526301311818,"17":0.052327119787555824,"18":-0.06323340045938639,"19":-0.19831001672747636,"20":0.15807089907239918,"21":-0.01077979458896591,"22":-0.1046003650183693,"23":0.03246114539868348,"24":-0.22782909486188693,"25":0.019401278486382817,"26":0.011299093837112464,"27":0.028740419113510295,"28":0.11221217337418635,"29":-0.06894029638178899,"30":0.0033735688528942626,"31":-0.2607421276354061,"32":-0.1293727367928274,"33":0.03678652807031645,"34":0.15228947139432078,"35":0.0889829267563236,"36":-0.44495309235351804,"37":0.055760056019159364,"38":-0.14747645749516072,"39":-0.04027110282014639,"40":-0.12009079953837917,"41":0.27444676715157046,"42":-0.10798759972252846,"43":0.08341228118413893,"44":0.031203436073702344,"45":0.17569206308357715,"46":0.08358334190076008,"47":0.10228311444569423,"48":0.23091228970317798,"49":0.015839858281928947,"50":0.25034327424515795,"51":0.18361362862066585,"52":0.072187859006861,"53":0.07830697849978135,"54":0.14246944642658183,"55":0.03730004892101476,"56":-0.09554766322877306,"57":0.005440767490593979,"58":-0.27247977098788245,"59":-0.006290003214637687,"60":-0.16772406071808013,"61":0.19456492061913933,"62":0.19696208556065964,"63":0.05252037130716903}},{"sx":2,"sy":2,"depth":16,"w":{"0":-0.1669080163113799,"1":0.30195153792654894,"2":-0.09014646491962561,"3":0.23517942423915497,"4":0.05748144672893981,"5":-0.009135101571243323,"6":-0.0471251327968021,"7":0.09797707756136527,"8":0.258108405121798,"9":0.06561118389586106,"10":-0.023981359320171564,"11":-0.01780050988910443,"12":0.10740685728554873,"13":0.07601245702363543,"14":0.21245452073573542,"15":-0.10824656376436083,"16":0.257834475415835,"17":-0.2451246415500431,"18":-0.24005505153368817,"19":-0.0033535713206970363,"20":0.06364816839361703,"21":0.29324878519387076,"22":0.05259265344399701,"23":0.06545999285702277,"24":0.15735570574323451,"25":0.15443200001604054,"26":-0.012139510856710107,"27":0.020923429158495262,"28":-0.09317849319427675,"29":0.08665745853128971,"30":0.008617334697465166,"31":-0.18638405280677284,"32":0.2557689861451609,"33":0.00425009914437867,"34":0.045549485592693506,"35":-0.0021167918913728963,"36":0.18737574959654238,"37":0.003911256666980831,"38":-0.15360952235819691,"39":0.05455301318724853,"40":-0.06602528321605071,"41":0.30266522633917947,"42":-0.04501632563889737,"43":0.030268490310623508,"44":-0.001663187014050121,"45":-0.0815058796747964,"46":-0.0622829323819018,"47":-0.17732626137962448,"48":0.1962467001604082,"49":0.0038836527341172696,"50":-0.02227941877786239,"51":-0.03034788660245288,"52":-0.0928979409887891,"53":0.17224950366279732,"54":0.06297230270321184,"55":0.0037241813796749616,"56":0.14167599047601645,"57":0.23349811795432615,"58":0.0037208898123221703,"59":0.01765855949877068,"60":-0.02186761493578121,"61":0.05902313569290115,"62":0.050682114936017784,"63":-0.015237903447555738}},{"sx":2,"sy":2,"depth":16,"w":{"0":-0.03630532950018428,"1":0.29119915631651383,"2":0.15576379077677152,"3":0.01743117766474284,"4":0.04201460038940231,"5":0.15875541867160417,"6":0.07267860108804773,"7":-0.1559965652406137,"8":-0.22332370377913272,"9":-0.3936096302997889,"10":0.06514823442160336,"11":-0.0031597045862653923,"12":0.07752624770861415,"13":-0.2167970994950117,"14":0.1063436433422486,"15":0.13084144426352337,"16":-0.3902819715677449,"17":-0.05045959154825032,"18":-0.004847672747523514,"19":-0.05559716709938685,"20":0.04557535097019736,"21":0.42597628434393053,"22":0.4018680809631919,"23":-0.30850535544198,"24":-0.13043824378099356,"25":0.19901626777810733,"26":-0.3312079320849592,"27":-0.14874523747597604,"28":0.15800233202217326,"29":-0.3614791913939171,"30":0.11719906444161819,"31":-0.1717249595678057,"32":0.09851580936542964,"33":0.05857915324116172,"34":0.23514452138133535,"35":-0.0879996705642969,"36":-0.1001963703235025,"37":-0.22875418066360115,"38":0.4114606130836396,"39":-0.16208832191814115,"40":0.17724829234434136,"41":0.3124326636202596,"42":-0.20379213719813957,"43":0.16321182104092763,"44":-0.017279123387933217,"45":-0.0037253582115545567,"46":0.11799629979644655,"47":0.14821105998089848,"48":-0.1608061580378147,"49":0.4260704054779856,"50":0.43829325873170244,"51":-0.2598395950137455,"52":0.22529303688947483,"53":-0.03362968517115941,"54":-0.2815673146380358,"55":0.054305304162071286,"56":-0.1089964691835434,"57":-0.06356722810105216,"58":0.18778514457660672,"59":0.06182891527349716,"60":0.4161364985370224,"61":-0.026285882263739922,"62":0.15022390102993358,"63":0.01065182096998282}},{"sx":2,"sy":2,"depth":16,"w":{"0":0.18292119941370985,"1":0.2876718578354454,"2":0.20546099786535318,"3":0.04070964393416169,"4":-0.34258115768990216,"5":-0.021905471875016652,"6":-0.13443241641803066,"7":-0.12876359173227053,"8":-0.16861716814647823,"9":0.028656042046431306,"10":-0.12819221582854728,"11":0.15643097133769213,"12":0.32453349341132637,"13":-0.3194028749630282,"14":-0.10019751162291732,"15":0.30090167120880146,"16":-0.21029357092122636,"17":-0.09244297919622833,"18":0.239638931293401,"19":-0.29637565556158096,"20":-0.08558765507674446,"21":0.3242943341087368,"22":0.2302137280412754,"23":0.003800849834236025,"24":-0.04119355633295991,"25":0.1816511322425117,"26":-0.39614094930284466,"27":0.017204212007750637,"28":0.007888256135841801,"29":0.04650014774127122,"30":-0.08311211351395033,"31":-0.20859562636372728,"32":0.0068833915873430605,"33":0.14486479328640675,"34":0.6787804929072858,"35":-0.18196347539392774,"36":0.12972903145177664,"37":0.04365993052508688,"38":0.15852529102129118,"39":-0.1343533348365789,"40":0.12015133010158033,"41":0.10278160301603614,"42":0.12831525331614338,"43":-0.20146019921780645,"44":0.49223356501802046,"45":0.018349631019893703,"46":-0.14506563753601545,"47":-0.23055968386161604,"48":-0.07272575009606523,"49":0.159975784856775,"50":0.21206378177468344,"51":0.03256056500274155,"52":-0.02666824231851862,"53":0.13118875465705743,"54":-0.08058149336495934,"55":-0.16951025753272356,"56":-0.027441460674812897,"57":0.20777224808965758,"58":0.0033977961181726373,"59":0.07375624942477667,"60":-0.2415493912735746,"61":-0.03209445215891266,"62":-0.02582430226551564,"63":0.07478783741893454}},{"sx":2,"sy":2,"depth":16,"w":{"0":0.18412319019381915,"1":-0.2473403964205168,"2":-0.10938594337992212,"3":0.44055300950060866,"4":0.1465628579584337,"5":-0.0020008812712011457,"6":-0.12577513059255105,"7":0.25465271125693456,"8":0.019549057874040456,"9":0.3224588553708189,"10":0.4908716631893874,"11":0.042364998125829806,"12":-0.30454773263254664,"13":0.03091403698268194,"14":0.07136551096877128,"15":0.27393275126041433,"16":-0.23238215443872232,"17":0.30951260041051537,"18":0.10695353713115499,"19":-0.023425013010454777,"20":0.15596596154710776,"21":0.3958297475231493,"22":0.1409157332390763,"23":0.09185583755041873,"24":0.1403738581103242,"25":0.10966178046592828,"26":-0.07014600448034196,"27":0.15764142122351799,"28":-0.04920782775539501,"29":0.052601241893093176,"30":0.2590103095516739,"31":-0.025162750980762726,"32":0.16753932942704242,"33":-0.18558834251047213,"34":0.12734355034510728,"35":0.024508250929877903,"36":-0.11802941311471746,"37":-0.08755188285136041,"38":0.1322150877080977,"39":-0.37590755819851573,"40":0.018572764599812396,"41":0.3456862285536265,"42":0.1406367597376107,"43":-0.2835248160595035,"44":0.013682759814278338,"45":-0.1744762366389156,"46":0.04089923079182046,"47":-0.19081632380932514,"48":0.049492502577236995,"49":-0.012286850957321642,"50":-0.329655997764147,"51":0.19409089169977034,"52":0.023067015898062707,"53":-0.19565529355813854,"54":-0.04981846324968198,"55":0.1450635063684712,"56":0.041730930495168565,"57":-0.19139678765478782,"58":0.20262920740209062,"59":0.19320202154183044,"60":-0.08811597091099893,"61":-0.11717551542148334,"62":0.13496818366451782,"63":-0.1107316944724028}},{"sx":2,"sy":2,"depth":16,"w":{"0":0.17757091404220202,"1":-0.19462257141487355,"2":-0.14125158364703636,"3":0.11920089873329776,"4":-0.11877106595798038,"5":0.08329561148898441,"6":0.11536898852512867,"7":-0.08365060264647252,"8":0.13121744958753062,"9":0.17488645148444293,"10":0.47557761086337585,"11":-0.46985362549368637,"12":-0.32983648377700864,"13":-0.1402311003423419,"14":0.05121287079994186,"15":0.41604903555659256,"16":-0.22583748505206935,"17":0.09737491902631534,"18":-0.08234441240448388,"19":0.12458130230651468,"20":0.06688294959775913,"21":-0.2757810727548215,"22":0.2461859388877951,"23":0.2794954193177457,"24":0.14269389282474834,"25":-0.02787410632613601,"26":0.0923799230397522,"27":0.031300346021696075,"28":-0.024498239608565738,"29":0.17305261031830496,"30":-0.21609696728474062,"31":-0.4450247400837581,"32":-0.0761278288005039,"33":0.11240552966435356,"34":0.6069351496246261,"35":-0.26286167737107125,"36":-0.3341076108408615,"37":0.10075273839608229,"38":0.38576717709936187,"39":-0.2501087458115598,"40":-0.02412226536990211,"41":0.12103454249941044,"42":-0.15634906349140104,"43":-0.5377993075964925,"44":0.10873568210094021,"45":-0.19399874712222773,"46":0.1022137129908749,"47":-0.5736437666566779,"48":-0.23828717282267972,"49":-0.027940614119996272,"50":-0.28979262787843063,"51":0.31750011838757286,"52":-0.27537989791107625,"53":-0.023872408339985895,"54":0.03981064611029272,"55":0.1631352728907915,"56":-0.2002109142093181,"57":0.13278884864605783,"58":0.15201792990908275,"59":-0.06611688136242977,"60":-0.5891939218003758,"61":-0.20795896997440855,"62":0.3076374217103247,"63":0.368073907880984}},{"sx":2,"sy":2,"depth":16,"w":{"0":-0.0950368836108415,"1":0.16263961176343383,"2":0.3929823329266051,"3":-0.07594059379660842,"4":-0.08975285799037751,"5":-0.1576913850371313,"6":0.4719683842926375,"7":-0.17961346128280148,"8":-0.17218043041205494,"9":-0.0033028045388244624,"10":0.049608392781406836,"11":-0.18545009491133282,"12":0.11087252642185225,"13":-0.030645943081359036,"14":0.28690934301747717,"15":-0.3290148717427539,"16":-0.10631380018254533,"17":0.08915292734759142,"18":-0.06237981508844515,"19":0.09108468825290725,"20":-0.26520008195502365,"21":0.11477197708336402,"22":-0.3011576027793701,"23":-0.05899580202330882,"24":0.09801932118093397,"25":0.07772007057777018,"26":-0.30677364684174546,"27":0.2927768017058826,"28":-0.21244194389346338,"29":-0.14578645460461212,"30":0.2990209665126915,"31":0.25168570353149244,"32":-0.07328741808849322,"33":0.23948901705574377,"34":0.07472175247658477,"35":0.09388624251419941,"36":-0.3196236227503247,"37":0.24518558495258003,"38":-0.17694393333699387,"39":-0.10643731373001217,"40":0.03151200250094557,"41":0.0810913845190971,"42":-0.06508859301361702,"43":0.11115262651521245,"44":-0.3705130225156042,"45":-0.020706495923830795,"46":0.20300061320819185,"47":-0.08469425172187908,"48":0.267092520582619,"49":-0.011349259732341604,"50":0.1752707340507866,"51":-0.1301477241421218,"52":-0.08661744826146758,"53":-0.009868916401256289,"54":0.2734672513147234,"55":-0.3505286567156413,"56":-0.3342594399145779,"57":-0.0726375350953555,"58":0.028716575573003483,"59":-0.09466258729837126,"60":0.41768513230091175,"61":-0.35579511058935986,"62":0.24869640473644158,"63":-0.3477880931797739}},{"sx":2,"sy":2,"depth":16,"w":{"0":0.23155784295214624,"1":-0.19265569375665728,"2":-0.16183749452574575,"3":-0.1270540586344775,"4":0.19116240483378885,"5":0.24068315691751666,"6":-0.00728482792836661,"7":0.15516993627966194,"8":0.25177029495573555,"9":0.22958596625374336,"10":0.5406987006202493,"11":-0.13230774077855986,"12":-0.12146069845287964,"13":0.11692140921552172,"14":-0.06209173826128191,"15":0.02230185253849966,"16":-0.04549445842921873,"17":0.04533762325910856,"18":-0.3090470917359614,"19":-0.09222788739725615,"20":0.0069272227778595956,"21":-0.1023276804689008,"22":0.23199137680972695,"23":-0.003371992297455342,"24":-0.031563547623038,"25":-0.021409955489417525,"26":0.03731009772334797,"27":-0.01789735019034064,"28":-0.03948689940044497,"29":0.01774116298927281,"30":0.17578846652303073,"31":-0.16221954177008618,"32":0.10332500363888884,"33":-0.15871283984040888,"34":-0.1265792827729333,"35":0.10542706337682284,"36":-0.018274196390206516,"37":0.09433742638174417,"38":-0.12696807448676817,"39":-0.027060740381766122,"40":0.07641631735488048,"41":0.002106859661065998,"42":0.10684099501309492,"43":0.08797241809318766,"44":-0.07487116499664417,"45":-0.2645534871050782,"46":0.02442961787220553,"47":0.023059942894744723,"48":-0.11895202553077218,"49":-0.009432193359299752,"50":-0.012479926304082263,"51":0.20878648927603546,"52":-0.08799022913224613,"53":-0.11913224736272843,"54":0.3838030067138897,"55":-0.05163871461549117,"56":0.029150456577762888,"57":-0.11678418356224321,"58":-0.14306024953540716,"59":-0.11505643462848568,"60":-0.06328626730088296,"61":-0.0588865635596,"62":-0.04708625544091966,"63":0.11998626717747753}},{"sx":2,"sy":2,"depth":16,"w":{"0":0.40440909385907653,"1":-0.1021104993461287,"2":0.014281185638208547,"3":-0.017036357370823527,"4":-0.2731484076269395,"5":-0.0019757909465826936,"6":0.09293115389559055,"7":-0.0864573292429517,"8":-0.23789773712984325,"9":0.02399358706231227,"10":-0.06695427850545879,"11":-0.07871074319589043,"12":0.04053215335808314,"13":0.021772367811344298,"14":0.16598083012259102,"15":0.1096877478348726,"16":0.005694670875206278,"17":0.08005588350740708,"18":-0.3185688536577936,"19":0.2474639163188262,"20":-0.22918180471794325,"21":0.1435638953606939,"22":-0.05991721121373463,"23":-0.07976872484845923,"24":0.08288052793012779,"25":0.06808307806200198,"26":-0.23336827457009962,"27":-0.05648430903627801,"28":0.12403852656985455,"29":-0.02949185882709116,"30":0.022408521085506852,"31":-0.25368544646888175,"32":0.1695263605826261,"33":0.19084379769444945,"34":0.05542980365459488,"35":0.07370631617770756,"36":-0.30327797844868726,"37":-0.0686230322874159,"38":0.33431788777721716,"39":-0.24058616420358184,"40":-0.1004021006788923,"41":-0.06428487691092985,"42":-0.16915517409083022,"43":0.07739754912254407,"44":-0.12910059735022195,"45":0.0684391569376812,"46":0.16906300262973953,"47":-0.027088275229167163,"48":0.023607742374887667,"49":-0.07317244885970899,"50":0.0023471758132840256,"51":0.21164321477520673,"52":-0.175878003193033,"53":-0.33782287609971573,"54":0.09441598929181418,"55":0.03504632693941712,"56":-0.07202159968211652,"57":0.11837300131439576,"58":0.1740581991069736,"59":0.12708818393953267,"60":0.12066995830818361,"61":0.12104634673863157,"62":0.06199038862248816,"63":0.0473401403732542}},{"sx":2,"sy":2,"depth":16,"w":{"0":-0.008579209718873972,"1":-0.05397320512539011,"2":0.1286934876706014,"3":-0.19564821469898244,"4":0.2981380801336569,"5":-0.16537840444787683,"6":0.12399686767530663,"7":0.0713619321851523,"8":0.05543431098686774,"9":0.13823533772246577,"10":0.21001001981507914,"11":-0.03272461683804767,"12":-0.14907325301424237,"13":-0.1636715648560104,"14":-0.03122783803605138,"15":0.18992752469665758,"16":-0.2709461155377999,"17":-0.014048969487432152,"18":-0.11407745135809633,"19":0.00970829380429238,"20":-0.038212543293798154,"21":0.008081906473812172,"22":0.12484859875858557,"23":0.1092053699036091,"24":0.19737447830063581,"25":0.10253257370995808,"26":0.12645024974487848,"27":-0.0621813007737825,"28":0.3985473160486087,"29":0.13360590178590534,"30":-0.08893775753655878,"31":-0.023173054365731388,"32":-0.047717297070485325,"33":0.17095211117672188,"34":0.1246622182442067,"35":-0.2860360086534083,"36":0.08693952964786143,"37":-0.1570384481016225,"38":0.5890766786413018,"39":-0.0018118529127605447,"40":0.022783949375707217,"41":0.10611670054622167,"42":-0.15478979990476677,"43":-0.0810611663916739,"44":-0.07400242028006264,"45":-0.08785065365418104,"46":-0.04181618192872175,"47":-0.2665397307199663,"48":0.21164136499180802,"49":-0.03541677286865501,"50":-0.18999097871958986,"51":-0.08176465876299185,"52":-0.1138233344081075,"53":0.07710330639406077,"54":-0.11318538772305062,"55":0.35504599926275426,"56":0.05574100133448722,"57":0.19605697394798344,"58":-0.04578767156172187,"59":-0.011217334359422794,"60":-0.03311012590265447,"61":-0.052920908027592146,"62":0.00410180245592131,"63":0.3193290978686178}},{"sx":2,"sy":2,"depth":16,"w":{"0":0.022121022037932387,"1":-0.0017318977668503296,"2":-0.06240147745927207,"3":0.0040022091504155685,"4":-0.1678152433618096,"5":0.21785131254683335,"6":-0.15701280260641468,"7":0.048014352942356564,"8":-0.0653814949049148,"9":0.11018678742604021,"10":-0.17303491813686303,"11":0.2713841335464074,"12":-0.07034692939776463,"13":-0.013526270450551372,"14":0.1864909135978196,"15":0.23257242834743255,"16":0.13352723862590302,"17":0.1743564317478278,"18":0.32730575658229294,"19":-0.21525958939894932,"20":-0.06450131343665705,"21":-0.18596739516851107,"22":0.1149673097205696,"23":0.0439836965152569,"24":-0.2669548618202678,"25":-0.0032136629227920927,"26":-0.26490229359681716,"27":-0.00549589936051901,"28":0.16609403030871858,"29":0.05065964532039969,"30":-0.17110680880839005,"31":0.02678574411012932,"32":-0.03271266082601156,"33":0.23590854014642926,"34":0.011363421858135877,"35":0.1061832785902389,"36":-0.12458550161428424,"37":0.04866784963033753,"38":0.2589724483248536,"39":0.01100714812324067,"40":-0.21288902460384268,"41":-0.11645893417809258,"42":-0.027769619587042757,"43":0.08187051929559035,"44":-0.0207132658832245,"45":-0.018719670870655247,"46":0.022824479321761508,"47":0.05010355823566149,"48":0.13904630296263185,"49":0.20104774872520143,"50":-0.060425811309089465,"51":0.03619658599890164,"52":-0.19866543678975526,"53":0.19108538409247144,"54":0.2778678953172156,"55":-0.0574054110315336,"56":-0.18358714365170906,"57":-0.010030083618207458,"58":-0.2607148320934002,"59":0.13655647898710435,"60":-0.40649364196522486,"61":0.0784139467945839,"62":0.15691113933650547,"63":0.10617992003992924}},{"sx":2,"sy":2,"depth":16,"w":{"0":0.14596307733113706,"1":-0.008547018668937664,"2":-0.15733069731554042,"3":0.1852259792078981,"4":-0.3424810388840903,"5":0.07992821409509482,"6":-0.19794994978923874,"7":0.006179696620727694,"8":0.2199596798827411,"9":0.11894171538174798,"10":0.16451170726985845,"11":0.03410957789877886,"12":-0.044408030728848746,"13":-0.05246636332995944,"14":-0.17072692320238356,"15":0.04340655720382329,"16":0.25519031138374454,"17":0.34741386525476947,"18":0.04405569832957057,"19":0.028869735441228672,"20":-0.0358846193837762,"21":0.19392927033202087,"22":-0.30191866385043253,"23":0.05958120188640574,"24":-0.061577879985151615,"25":0.05843866412222296,"26":0.04665150380040264,"27":-0.027173418685879174,"28":-0.17148273496015665,"29":-0.014844025338044227,"30":0.01752467392588637,"31":0.1224959581063842,"32":-0.1710804208334096,"33":0.023335550647182457,"34":-0.21849886240650537,"35":-0.1297653843378545,"36":0.0352900875259092,"37":0.323536074301367,"38":0.06667041208112261,"39":-0.03514683368558712,"40":-0.14861924204223345,"41":0.07498447981450893,"42":0.024972466727376425,"43":-0.2182716145770062,"44":0.22546854352246837,"45":0.12009990423965375,"46":0.2103142663301944,"47":-0.3122279704169951,"48":0.26874235511322725,"49":0.1878179362236217,"50":-0.08901156294857121,"51":-0.11305917569264401,"52":-0.174358742847967,"53":0.12060445029293675,"54":0.10175146541685556,"55":-0.21643698468817213,"56":0.07592774311272478,"57":0.012101721260401216,"58":0.04485832797550587,"59":-0.22462522236945773,"60":-0.15671517563004916,"61":0.2584695679054356,"62":0.20947205342992412,"63":0.08477320787360353}},{"sx":2,"sy":2,"depth":16,"w":{"0":0.14540894381561603,"1":0.030677973314378406,"2":-0.096063407303963,"3":0.21313937093389027,"4":-0.1937530803059479,"5":-0.03096330334401125,"6":-0.15174590974543745,"7":-0.23734025054737307,"8":0.2706725814831454,"9":0.19871387828795126,"10":0.004460378158539174,"11":-0.2513791817360377,"12":0.27692907741187855,"13":0.09935513901868086,"14":0.03950951250817515,"15":-0.07670830873132904,"16":0.0826170092729116,"17":0.2156042775662967,"18":0.054263612499074756,"19":0.05680661092311788,"20":0.12807017501641274,"21":-0.12955045420447103,"22":-0.041281922312152226,"23":0.13207121734176958,"24":0.1740818306835746,"25":0.07169522599663744,"26":0.29334346106073905,"27":-0.08110659038483868,"28":-0.09566392727777022,"29":0.026100949811170473,"30":0.344578546769089,"31":0.1681681104545971,"32":0.04343969432211536,"33":0.2118340027757423,"34":-0.06193463199529441,"35":0.0076524683126288915,"36":-0.12237758858552167,"37":0.11711696833985724,"38":0.07310098828285265,"39":-0.22841024604751056,"40":-0.06187604656159668,"41":0.1177698198640706,"42":-0.05299626174906807,"43":-0.38128852421428466,"44":-0.08923546588017447,"45":-0.10610844240793514,"46":0.30432802833035316,"47":0.1287057780559545,"48":0.17114733128305767,"49":0.07424959731071805,"50":-0.05347785085928918,"51":-0.1342035163101725,"52":-0.018886073254471898,"53":-0.09142353797032296,"54":-0.14702815161087446,"55":-0.0502624859163931,"56":0.007436240490251953,"57":0.03298834276086308,"58":-0.39284106450481815,"59":0.06587318594983854,"60":0.1343360673796885,"61":-0.10322917428741354,"62":0.009729095164079122,"63":-0.13090043805120613}},{"sx":2,"sy":2,"depth":16,"w":{"0":-0.15498575710135187,"1":-0.022447309559625397,"2":-0.24078595062785718,"3":0.0819519850103448,"4":-0.010701851022742693,"5":0.05198256972679147,"6":0.35890304746281615,"7":-0.21039502872918062,"8":0.3181543275931841,"9":0.06125968613330216,"10":0.29790952366871964,"11":0.11011146486265126,"12":0.08833068602187968,"13":0.022812625687468294,"14":-0.216447164100198,"15":0.009093635246490277,"16":-0.006447731962408902,"17":-0.20257351290034653,"18":-0.05233964774630358,"19":-0.18653291971927877,"20":0.05302153393638724,"21":0.17517773702611436,"22":0.02960074127792414,"23":0.2888194145940878,"24":0.014797934940528038,"25":0.17740999409377944,"26":0.15748589913611052,"27":0.028317817904605757,"28":0.05847207081899181,"29":-0.018321344582764153,"30":0.16138422639350317,"31":0.02772667619234263,"32":-0.3989646155764261,"33":0.18295665261907626,"34":-0.00281436453848699,"35":0.015372310301591377,"36":-0.05497399488444442,"37":0.2973678726586412,"38":-0.1410222072032624,"39":-0.15338318672274032,"40":0.0751411683240071,"41":0.046260618379821164,"42":-0.24124789295336804,"43":0.095969879227916,"44":-0.046138032130844865,"45":-0.03297651708320327,"46":0.19896349573986544,"47":-0.3460777406871966,"48":0.17216460002725514,"49":0.13597507358283864,"50":0.2456392912220206,"51":0.1612979081728633,"52":-0.2961970757729141,"53":-0.4794030487081805,"54":0.21939394430831174,"55":0.016945665396516003,"56":-0.2912614006315701,"57":0.12056155252872101,"58":0.1549624623481682,"59":0.02459784296172604,"60":-0.33972652643357076,"61":-0.29864424215359886,"62":0.09999656970483896,"63":-0.04844958918595581}},{"sx":2,"sy":2,"depth":16,"w":{"0":-0.2603836132343924,"1":-0.2759343235252602,"2":-0.22122341211765298,"3":-0.10048323877425692,"4":0.3230924248461664,"5":0.04593212591197583,"6":-0.0833474738790249,"7":-0.16484152937562105,"8":0.24220612648610884,"9":0.4055292098519382,"10":-0.0555321744050048,"11":-0.06009200957304181,"12":0.1635495446640887,"13":-0.21490232457200603,"14":-0.10131147154558433,"15":-0.2807485996256205,"16":-0.13829480081134524,"17":-0.1255820512297796,"18":-0.2977757129606294,"19":0.4450537692281288,"20":0.19186272218698625,"21":-0.1360511504283729,"22":-0.15126611360723174,"23":0.1535376036597937,"24":-0.13294574940405304,"25":0.04574284791367269,"26":0.2427219690135699,"27":-0.11843197023361847,"28":-0.1153841936822118,"29":-0.0594489180256612,"30":0.06362260526551647,"31":0.16895655126385223,"32":0.2323598570378735,"33":0.0607201886060344,"34":0.350927237999148,"35":0.19730717906168174,"36":-0.2039696033988914,"37":0.20389645571411696,"38":0.14098702263801524,"39":-0.030650768523081042,"40":-0.40894996557387076,"41":-0.06327836725030805,"42":0.07835559810114603,"43":-0.2558197946964289,"44":-0.19570529731237116,"45":-0.16845288443237932,"46":-0.03646463695657704,"47":0.3327014205098624,"48":-0.22145409006927222,"49":-0.05820329584481215,"50":-0.08782561377910013,"51":0.25534132044197044,"52":-0.18786270214506456,"53":0.19161434990828893,"54":0.1219341884527308,"55":-0.25232279589333945,"56":0.04847279005428443,"57":0.30449077020615317,"58":-0.17276521445344173,"59":-0.13749833134727896,"60":0.01060637034236894,"61":-0.40489424495994436,"62":-0.01863234504791651,"63":-0.24078676888852152}},{"sx":2,"sy":2,"depth":16,"w":{"0":0.06108725537337727,"1":-0.1307420102354206,"2":-0.022114208302757014,"3":-0.03793060943185383,"4":0.11628886960171445,"5":-0.2513525889294245,"6":0.20609667082838687,"7":-0.1278214304046759,"8":0.042736239476482356,"9":0.16280575831671437,"10":0.40781261378540623,"11":-0.0016331496205445137,"12":-0.16710053370041553,"13":-0.1820422539135906,"14":-0.05412980545674445,"15":0.10802364271556916,"16":0.11906353716459933,"17":-0.06854564341469946,"18":0.2840897531234604,"19":-0.07861797930532388,"20":0.40687078912793495,"21":0.0533708280118908,"22":-0.06915646494712249,"23":0.1464876493699539,"24":0.11238203070079957,"25":0.1583166948915765,"26":0.1627805592469032,"27":0.13678574521616177,"28":-0.00962909689908526,"29":0.00759671819826442,"30":0.1007081851974832,"31":-0.16807811154218275,"32":-0.13544801213986482,"33":-0.04491025094237135,"34":-0.12662582945656684,"35":-0.20947403474920212,"36":0.045833611315234384,"37":-0.09928942579651867,"38":0.08209188594852763,"39":0.32985010819326205,"40":-0.008708977460684901,"41":0.12251982655982507,"42":-0.023467927403312605,"43":0.1283927189552372,"44":0.1330026421475064,"45":-0.2548340011838711,"46":-0.15253249893862997,"47":-0.22789519244391612,"48":0.10351555756345517,"49":0.07594033447981012,"50":-0.11390708297276236,"51":0.26369111774397014,"52":-0.02330899122561987,"53":-0.07732615918845227,"54":-0.22400861948197437,"55":0.4166584443084109,"56":0.05121488888863151,"57":0.3150503045162755,"58":0.42228516853987563,"59":-0.009501033432320357,"60":-0.3393109236424791,"61":-0.2572603721178934,"62":0.05079967654492784,"63":-0.10289537173184933}},{"sx":2,"sy":2,"depth":16,"w":{"0":-0.12922194208592544,"1":0.1416688501425597,"2":-0.09194898397220386,"3":0.08132847442514564,"4":0.10039975005938528,"5":0.4004962394724799,"6":-0.13042967702381503,"7":-0.24293351519786813,"8":0.02408869708403422,"9":0.22151739893687664,"10":-0.39363551693959914,"11":-0.09536225911674596,"12":-0.055007955144149544,"13":0.00872417525914865,"14":0.22533501039668227,"15":-0.10392779298477642,"16":0.4554128999179146,"17":0.023863186713542796,"18":0.1937068445396345,"19":0.056558404099411506,"20":-0.1636645182920406,"21":-0.014049653072363007,"22":0.20516731716203046,"23":-0.4050960654656171,"24":-0.23555098332530292,"25":0.07518147684273917,"26":0.20548637008380397,"27":-0.20032461312972719,"28":-0.013234859526104644,"29":0.10883795901978995,"30":-0.06515978208772123,"31":0.00675354417388114,"32":0.0934705135996193,"33":0.02127181469749105,"34":-0.04596080129208141,"35":0.36455036576221295,"36":-0.2876329510046222,"37":0.1361804814765096,"38":-0.10055780025987807,"39":-0.19381195073090404,"40":-0.02182894023373556,"41":-0.029393904219129924,"42":0.08620739716311879,"43":-0.08663427868099706,"44":0.20082736210245866,"45":0.06728260834126049,"46":-0.1627100996501019,"47":0.32634210840475336,"48":-0.18087945234615038,"49":0.11737076124993719,"50":0.21462359980046913,"51":0.03171225801449309,"52":0.17265402158297533,"53":0.44156056326175847,"54":-0.06893787477205009,"55":-0.056406981739845354,"56":0.09829456168581485,"57":-0.008408141015062171,"58":-0.08355133737310766,"59":-0.052002108979343396,"60":-0.21159668865943237,"61":0.04005596648846695,"62":0.0150177656379444,"63":-0.31836709435458244}},{"sx":2,"sy":2,"depth":16,"w":{"0":-0.1748218410261885,"1":0.13146818915644068,"2":-0.20244747697878607,"3":0.21419120918660164,"4":0.045856087855969244,"5":-0.016157570216027605,"6":-0.12611167916565086,"7":0.18203763896054737,"8":-0.2022019670152479,"9":0.01669675843849643,"10":-0.0021325810946078026,"11":0.1705148802166662,"12":0.017534511602335313,"13":-0.0066548936348410324,"14":0.1127454853889558,"15":0.035622751883145114,"16":0.3884720745972117,"17":0.11546941143677573,"18":0.0982942113655649,"19":-0.19167809229194954,"20":-0.024175987539033453,"21":0.1747338097837965,"22":0.12903204055907092,"23":-0.20662671265634175,"24":0.12003297127699233,"25":-0.26817343457841974,"26":0.2423028040493835,"27":-0.2062472222963603,"28":-0.056870063598369665,"29":0.14230525224092208,"30":0.07881972390612753,"31":0.06709860070716626,"32":-0.11936899570554944,"33":0.17892815922630345,"34":-0.04216743605899085,"35":0.0011535345878677455,"36":-0.4699391683088308,"37":0.1784359451984327,"38":-0.14960859222892978,"39":0.18304564707319165,"40":-0.07580927000291127,"41":0.12834480854776453,"42":0.1968531546295625,"43":-0.3393942757997408,"44":-0.13008741137247823,"45":-0.003308362232480182,"46":0.1593963002316208,"47":-0.22115985706481375,"48":0.3015894747959139,"49":0.11307268213033743,"50":0.09641391291074795,"51":-0.046783766550062035,"52":-0.2711237068097783,"53":0.21390063247580948,"54":-0.14785806419291647,"55":-0.08520346551526939,"56":-0.2601488046852464,"57":0.09089129207468213,"58":-0.27827406651885267,"59":-0.07735382853794626,"60":-0.1828236815008028,"61":-0.11852149395510377,"62":0.19454240046655855,"63":-0.08414088357725054}}],"biases":{"sx":1,"sy":1,"depth":32,"w":{"0":0.16917467705880487,"1":0.10673648701137876,"2":0.10718327774490659,"3":0.12140044231048894,"4":0.10933893021790862,"5":0.11442631571856311,"6":0.0866405320609192,"7":0.13358662257411238,"8":0.08070489776630879,"9":0.15410130819796636,"10":0.06943176845504216,"11":0.11462704688760567,"12":0.08219503690921713,"13":0.08416993635716549,"14":0.10610633097305254,"15":0.1376714404603102,"16":0.08176914661663631,"17":0.08148601755670057,"18":0.20463012842306677,"19":0.12201803755615395,"20":0.07820771818615836,"21":0.1324187335373794,"22":0.11582217636961191,"23":0.08405649910425886,"24":0.10805722047879904,"25":0.10336425323398796,"26":0.13632494143341212,"27":0.05762953414691121,"28":0.10016735847758214,"29":0.06719068890042865,"30":0.1396371385922183,"31":0.09559444611852619}}},{"out_depth":32,"out_sx":5,"out_sy":4,"layer_type":"relu"},{"out_depth":100,"out_sx":1,"out_sy":1,"layer_type":"fc","num_inputs":640,"l1_decay_mul":0,"l2_decay_mul":1,"filters":[{"sx":1,"sy":1,"depth":640,"w":{"0":0.001792292637201713,"1":-0.01902355277931133,"2":0.018187081269257936,"3":0.006563129926433918,"4":-0.007543094025221287,"5":-0.037909853701871825,"6":0.036615694277006665,"7":0.03261412995611099,"8":-0.032158382517912094,"9":-0.0559203500003127,"10":0.010107349923578396,"11":-0.0033064624262999064,"12":-0.0028597009721255395,"13":-0.0032685760756671787,"14":-0.03385928572944481,"15":-0.03254660823288455,"16":0.030101289056695686,"17":0.02859399704492131,"18":0.018453038861423472,"19":-0.08552136884220599,"20":0.00854460612895617,"21":0.0010941897696518182,"22":-0.015487792689228118,"23":-0.016507186070815357,"24":-0.04817857532919357,"25":-0.03859574532891977,"26":-0.06362593611554175,"27":-0.0259166801842602,"28":0.00013161933000888518,"29":-0.022914631068354792,"30":-0.023673597495933896,"31":-0.03067235053414738,"32":-0.05055798462974415,"33":-0.011319400122971683,"34":0.002366060826982535,"35":-0.003953055330535182,"36":-0.026059013863155043,"37":-0.04121492943954096,"38":-0.07301221498688595,"39":-0.0008353488875005372,"40":0.010946744829440013,"41":-0.05621934075443532,"42":0.00559780761907619,"43":-0.07133702155628961,"44":0.09594458086481893,"45":0.018183020287860216,"46":-0.06805973731008372,"47":-0.0013513126170385298,"48":0.06400313060781443,"49":-0.04651362309381167,"50":-0.051049676741061305,"51":-0.04403721036443524,"52":-0.011747963574453351,"53":-0.01767420341231514,"54":-0.06733542295667627,"55":-0.017641546129708377,"56":0.02305215092915687,"57":-0.05738060594691471,"58":0.001011514939718742,"59":-0.10885618256502842,"60":-0.012452710948364906,"61":0.0012798560688392746,"62":0.04264446456868165,"63":-0.05421231664728744,"64":-0.03896749317604097,"65":-0.030347562015442888,"66":-0.07579056232302554,"67":-0.006395022143391575,"68":-0.037894641352128666,"69":-0.05553854866002617,"70":0.05807423738383772,"71":0.019353480683481375,"72":-0.02824966671189783,"73":-0.030080163898343813,"74":0.006830529881506219,"75":0.08957361448756938,"76":0.09500138632157289,"77":-0.04145072119235646,"78":-0.004965302349430769,"79":-0.00237493954691737,"80":0.05046998540834427,"81":0.02418113856915417,"82":0.03205455733810759,"83":-0.021106620478768528,"84":-0.006417320243826285,"85":-0.03358780486551947,"86":-0.031214774970181162,"87":0.011236205450848531,"88":-0.05394582791217284,"89":-0.004589067841220915,"90":-0.05641915683706964,"91":-0.021851482758380655,"92":-0.05576795824131716,"93":0.008318270577098092,"94":0.004830877382325568,"95":-0.03391887316786398,"96":-0.03968723683015422,"97":0.012264515151427787,"98":-0.027074128165461245,"99":0.014066465569106049,"100":0.018418585149511408,"101":-0.05097208293327809,"102":0.04491434675785791,"103":-0.044455601044080625,"104":-0.016463382620596496,"105":-0.008845598454375022,"106":-0.0027797430832132404,"107":0.050636110433506694,"108":-0.04571560634193538,"109":-0.005859089398215608,"110":-0.06188811798486639,"111":-0.019944303675702366,"112":-0.039740062090392284,"113":0.016586894931241904,"114":0.04276726604236989,"115":0.004307808497295434,"116":-0.015390824318403475,"117":0.02047215614110016,"118":-0.011268663221528379,"119":0.06804813785699741,"120":-0.053547492665821844,"121":-0.007835544224242978,"122":-0.019323241290005698,"123":-0.017600505316024303,"124":0.007194223743184304,"125":0.014586875622549638,"126":-0.04594954309944752,"127":-0.021441157702828912,"128":0.017237629323565262,"129":-0.018412349732955503,"130":0.05101075728182732,"131":0.046206146001006,"132":0.0769603004846683,"133":0.02081727002111325,"134":0.05552823382190063,"135":-0.04262411579205902,"136":-0.06486443734548655,"137":0.015259446827641073,"138":-0.01583028687550706,"139":0.04200156451582496,"140":-0.04918734687569201,"141":-0.061264366120905134,"142":0.016086933623049554,"143":0.037101676538797264,"144":-0.05983759487151992,"145":-0.0013983102707543667,"146":0.0619045522575645,"147":0.028558440529508004,"148":-0.05965003940629978,"149":0.07608190175390538,"150":-0.02989143716788874,"151":0.07976490271840114,"152":-0.010240298397127564,"153":-0.0333146727873598,"154":-0.00005429681328973847,"155":-0.01858031244608125,"156":-0.006024301464275889,"157":0.08452099722213564,"158":-0.009485104846786191,"159":0.023169477132117044,"160":-0.07242353350081056,"161":-0.022132245106887945,"162":-0.02189195328650523,"163":0.011638903340867958,"164":0.027905465844830873,"165":0.019601886865288628,"166":0.010338125597911595,"167":-0.005041574774863351,"168":-0.10101019471386637,"169":0.04822094959167423,"170":-0.04641148159881688,"171":0.06299281696905071,"172":0.023739308197462027,"173":-0.044632745594010786,"174":-0.0702772963630765,"175":-0.015249358422754008,"176":-0.03502355971144029,"177":-0.08428490186737764,"178":0.0269980389493173,"179":-0.053994537062423506,"180":-0.018931388435911262,"181":0.09842178876691841,"182":-0.12497088608060136,"183":-0.055503196985710816,"184":-0.07723955756448297,"185":-0.010384714128090403,"186":-0.06447076974074248,"187":0.021658600923540838,"188":-0.12396716292907842,"189":-0.008442988945859238,"190":0.019311876969522152,"191":-0.03363951777178674,"192":-0.034715241713630045,"193":-0.0771847239652123,"194":-0.006263827235097246,"195":-0.003340180523300214,"196":0.05683933842500362,"197":-0.06156627566125402,"198":0.05271748076301822,"199":0.015226753964676687,"200":-0.07040869685597852,"201":0.04864496380542298,"202":0.020456562794631348,"203":0.1164724921567377,"204":-0.04779690382038072,"205":-0.05873648821426326,"206":-0.020218389925635395,"207":-0.011001433402643911,"208":0.02978256221256557,"209":0.046411279144345896,"210":0.06017666760599966,"211":0.027155841411126175,"212":-0.015506408148979203,"213":0.028695982068088627,"214":0.0565324640996428,"215":0.12544547718227458,"216":-0.08753497317030967,"217":-0.021960480479757745,"218":-0.028428834007827513,"219":0.041299978842298454,"220":-0.0464920799651116,"221":0.03860293117909856,"222":-0.09361856254009926,"223":-0.016559756295998696,"224":0.029158616164786395,"225":-0.06617844903139196,"226":0.021457317011337042,"227":0.05370693746108168,"228":0.017439786669740175,"229":0.06649234849980062,"230":-0.02158732287481189,"231":-0.01808369161581999,"232":-0.0730288953790315,"233":0.003940418416746224,"234":-0.027441088386046503,"235":0.045052600454716464,"236":0.005249275160675662,"237":0.043347772438884935,"238":-0.021499973045448175,"239":0.02028292334137234,"240":-0.008286940180865907,"241":-0.03299170023921501,"242":0.06976530223828038,"243":0.09219931330620018,"244":0.024175721983191113,"245":0.10696257124703458,"246":-0.05480049159509474,"247":0.022309957358235197,"248":-0.015793712833626992,"249":0.00957273467181879,"250":0.015031415255073028,"251":0.05486837031557692,"252":0.05449375404513062,"253":0.0827706993807783,"254":0.006277589006971603,"255":0.0029380247671377947,"256":0.02113604747258678,"257":0.010966426069501049,"258":-0.013713567574066365,"259":-0.008117566053603706,"260":0.025158759038535594,"261":-0.013515269036633958,"262":0.021102465852133406,"263":-0.06778539882900413,"264":-0.027013468482998983,"265":0.07933655997746056,"266":-0.030517706666833882,"267":0.01585206092856188,"268":-0.01193762346272575,"269":0.031516113525540325,"270":-0.052630108560759926,"271":0.009375818405563131,"272":-0.011629188994742584,"273":-0.052839805156462694,"274":0.026609928400730263,"275":0.052418578654801345,"276":0.014039201467895814,"277":0.07789689728492846,"278":-0.04665403980205862,"279":0.023094282774668226,"280":0.00018252950442219072,"281":-0.06313118615714619,"282":-0.044321915699713284,"283":-0.01772705952541109,"284":0.0020906339540648087,"285":-0.01839729423573827,"286":0.06799549144402646,"287":-0.028597751546164056,"288":0.02114852294625084,"289":0.031165196185912642,"290":-0.04576129295276016,"291":0.03315923007723507,"292":-0.008422825849394244,"293":0.03377024617969289,"294":0.038626137116543835,"295":-0.053849873761598714,"296":-0.09372141573820325,"297":-0.008280297372469315,"298":-0.0671151938202937,"299":0.00516049592866203,"300":-0.04394719120847695,"301":-0.040712467581048684,"302":-0.024271470971573818,"303":-0.007879228185188842,"304":-0.049682715515593494,"305":0.006334660430689405,"306":0.025422439315713467,"307":0.02281269599272406,"308":0.008189822429974614,"309":0.054651189293900095,"310":-0.018200985102885057,"311":0.00916581260910599,"312":-0.04325424116126828,"313":0.04664070745958365,"314":-0.009772341383856171,"315":0.02650715275913668,"316":0.006467734546019557,"317":0.009893166241107879,"318":-0.021195423225411424,"319":0.021242804442346986,"320":0.03523692266052688,"321":-0.05268942471355228,"322":0.012071319102578781,"323":0.06883163184839554,"324":0.05927849378723626,"325":-0.001034977563136518,"326":-0.035126943216510484,"327":-0.11757269787668947,"328":-0.006776387981581133,"329":0.0004020632086649085,"330":-0.11458559033175048,"331":-0.020533772855766432,"332":-0.03282423390322455,"333":-0.06275120330175693,"334":-0.09688758727046697,"335":-0.014548436444116014,"336":-0.16669836335997273,"337":-0.011178331066752098,"338":0.04722401881358649,"339":0.05580856653539484,"340":-0.048909612642047746,"341":0.13355291381659803,"342":-0.15293098456028598,"343":0.04023148297351205,"344":0.039070313846229596,"345":-0.03434573685656701,"346":0.0017387238572045606,"347":-0.032137918183932926,"348":0.06815444180314834,"349":0.023019553684276974,"350":0.0004114890432775734,"351":-0.004671336186455003,"352":-0.06832617596742162,"353":0.019917994195930693,"354":-0.08950668157286569,"355":-0.04851212470890857,"356":-0.0703608346107556,"357":-0.00026582371158429506,"358":0.0013394652107379477,"359":-0.0716356085545004,"360":-0.047699779386945314,"361":0.02487116145490122,"362":-0.072448170192268,"363":0.004884971443594528,"364":0.000020810593143865637,"365":0.03257377654301194,"366":-0.024845699115166826,"367":-0.005331225234294739,"368":-0.011280774707986519,"369":-0.130562372115511,"370":-0.07002746247084568,"371":-0.06864590255488974,"372":0.06790786774172469,"373":0.01278781081407955,"374":-0.031420602838406385,"375":-0.00290199723572141,"376":-0.039423986372415676,"377":-0.05817643880051017,"378":-0.053576769246079535,"379":0.015625294710689724,"380":-0.004333185787770955,"381":-0.08130251118628205,"382":-0.008382579122649439,"383":-0.06251250844598807,"384":-0.063815740713128,"385":0.037818967736765886,"386":-0.04023341291839582,"387":0.01988617573697891,"388":-0.005387927040133799,"389":0.014520492434254854,"390":0.0007422521800815718,"391":0.007045776697839406,"392":-0.015064596882233938,"393":0.014525977335049284,"394":-0.0021056124751695823,"395":-0.00783878369584443,"396":0.0011024222368895087,"397":0.01930251956208691,"398":-0.03263673926833727,"399":-0.030208954756001955,"400":0.005680312340614867,"401":-0.03391231627085959,"402":0.031925930449414816,"403":-0.006955444440516473,"404":-0.0035151650811154293,"405":0.015927700883259573,"406":0.0030456524826295017,"407":0.004524131332322838,"408":-0.021817899144864986,"409":0.00344447105352624,"410":0.05901524442152679,"411":-0.03249338954723265,"412":0.07367512276381406,"413":0.003925498269406491,"414":-0.037474441195593684,"415":-0.024677932535562486,"416":0.06195157024077777,"417":-0.028224436604849145,"418":0.06229628542139454,"419":0.00024238933632143178,"420":-0.010951797189082436,"421":0.000813525852269532,"422":0.037948891820348406,"423":0.04020220483538599,"424":-0.000047613938984119327,"425":0.06950788875030237,"426":0.03289627821726456,"427":0.007649431361349613,"428":0.002314040185547704,"429":-0.032153376950347444,"430":0.03025252261545862,"431":0.01696823723937905,"432":-0.020524684813167975,"433":0.0529668609536818,"434":0.08952861971778871,"435":0.059391678755258165,"436":-0.00029301044904106764,"437":0.09138418338243415,"438":0.03728895337318805,"439":0.025625362545650027,"440":0.036514209275229075,"441":-0.008813437059959512,"442":-0.022578320178313103,"443":0.07670381063926139,"444":0.02660975321037409,"445":-0.0009249827222271436,"446":-0.021375797787889644,"447":0.006270716756448904,"448":-0.029792267892091377,"449":-0.03305983124162601,"450":-0.009974803333877486,"451":0.03643606727613973,"452":-0.04429305263018651,"453":0.08353947853884787,"454":-0.03714181503170828,"455":-0.029606311458439304,"456":-0.013889971319631716,"457":-0.02567277496654674,"458":-0.0707437673712273,"459":-0.04588483609261577,"460":0.013617862868019052,"461":0.002650446182381239,"462":-0.10023252388360165,"463":-0.012451186099173141,"464":-0.037823125471742464,"465":-0.08957095267941796,"466":0.02633901196613211,"467":-0.050354942089479666,"468":-0.029504560878178918,"469":-0.011330596275911178,"470":-0.035164700681752425,"471":-0.08165706710871024,"472":-0.004473792758325429,"473":-0.028693700752664187,"474":0.004490623204940441,"475":-0.07833208601393987,"476":0.02121521923585319,"477":0.004730655802895697,"478":0.06462743154965968,"479":-0.007031055415494278,"480":0.016400036679125946,"481":-0.05163215409853317,"482":-0.06052756227405077,"483":0.009062740084717599,"484":0.003968466392730092,"485":0.008433194094522083,"486":0.054241944503660044,"487":-0.0001555747200385865,"488":-0.04401728012109502,"489":0.10993446186484643,"490":-0.006432662242715918,"491":-0.041760695058297506,"492":0.022552829774105602,"493":-0.004029470009744774,"494":-0.06657450943494767,"495":-0.05928490435763331,"496":-0.026686324553033772,"497":-0.07987558835083783,"498":0.044233490184427134,"499":0.04684019193633756,"500":0.053676648126818154,"501":0.1265944948099821,"502":-0.01111533135902303,"503":-0.007008626941991919,"504":-0.035505606489071743,"505":-0.004761405469496739,"506":-0.02183452703666066,"507":-0.019053256091183704,"508":0.011500916923936354,"509":0.021857431849116662,"510":-0.08480034128040508,"511":-0.0018065481413578445,"512":0.08119944430464125,"513":-0.03147209199601764,"514":0.08111653571356249,"515":0.01889039371598028,"516":-0.04094376405216725,"517":0.01684055174332784,"518":-0.022862909145271917,"519":-0.015195079697385738,"520":0.038940092193795975,"521":-0.06678260280260005,"522":0.015385708072977157,"523":-0.046958887006856485,"524":-0.02839903150364654,"525":-0.015546357486154959,"526":-0.00132948194587094,"527":0.020003548671322563,"528":-0.0067401740839911715,"529":0.012454434894118542,"530":0.032968505137265874,"531":0.028134658792184155,"532":-0.006234901838055425,"533":0.021968077420239138,"534":-0.00043651984650805166,"535":0.0013900524854584158,"536":0.07667598853109038,"537":0.031161297215351512,"538":-0.016622464888659535,"539":0.02929229377448063,"540":-0.04016776548043292,"541":0.003197697263040779,"542":0.024706405447739197,"543":0.07552942561947382,"544":0.02630772454485439,"545":-0.01689067751604921,"546":0.004085226354458761,"547":-0.008765918829750717,"548":0.042274076118069555,"549":-0.01799090951621426,"550":0.029146005661913253,"551":0.011906739850718788,"552":-0.025469428247510036,"553":0.042972460930108716,"554":0.07661896875245816,"555":0.04060406731216485,"556":0.01870396940502681,"557":-0.02242462444050254,"558":0.003522500643882858,"559":-0.048919034183042304,"560":0.06684879440510472,"561":-0.031152046110101726,"562":0.0485108648007447,"563":0.018005206069362886,"564":0.02607079163265306,"565":0.09449488798046243,"566":0.07878518932667408,"567":0.06115697466671148,"568":0.010807763820052685,"569":-0.043669314193008846,"570":-0.01023003828592358,"571":0.033242527276873594,"572":0.02083455815228447,"573":0.06036403872654917,"574":-0.04303936210082166,"575":-0.061221205805208324,"576":-0.014457552533822911,"577":-0.023889699022784025,"578":0.02578728335023523,"579":-0.050649030467671594,"580":-0.03002385549576696,"581":0.045500696048996314,"582":-0.04358843078676409,"583":0.006257536743817358,"584":-0.033872504784065394,"585":0.028168884477285945,"586":-0.021780361342128417,"587":-0.02742814856823951,"588":0.054324283139794045,"589":-0.022129836085895267,"590":-0.05878888386856548,"591":-0.04250289256148855,"592":0.020144804718507797,"593":-0.01971856213020806,"594":-0.014622954197421403,"595":-0.006923505956875649,"596":-0.039497481934402445,"597":0.024641973748603326,"598":-0.019966927580890984,"599":0.002348065104690728,"600":-0.010231363828511286,"601":-0.0421339171370955,"602":-0.018798852935316364,"603":-0.11068467233299553,"604":0.09512230714182057,"605":-0.0694680040770922,"606":0.03204711202658129,"607":-0.022584263800439593,"608":0.016241247980009105,"609":-0.012145324872974149,"610":-0.000727503015867046,"611":-0.0071127517287807454,"612":0.00976607754898269,"613":0.02510704874601578,"614":0.0014835468030962107,"615":0.0008147436549848857,"616":-0.06229321859980806,"617":0.08425932066045629,"618":0.03571622146419407,"619":0.06350879430056028,"620":-0.04509530504666448,"621":-0.08897200197440047,"622":-0.029563326095500112,"623":0.009583211759778151,"624":-0.03593866416869572,"625":0.0027514141493785735,"626":0.021308055471680385,"627":0.034442379866553546,"628":-0.01673607297368044,"629":0.02335609520834635,"630":0.006952776009650744,"631":0.03574739480062297,"632":-0.03396247701376013,"633":-0.007041225189761968,"634":-0.07557527160148651,"635":0.02156721672415662,"636":-0.04875999304874873,"637":0.01390621757820594,"638":-0.034990366215460394,"639":-0.02816491173265264}},{"sx":1,"sy":1,"depth":640,"w":{"0":0.04983161142702048,"1":0.23757518874617786,"2":-0.13855268798523163,"3":0.08082256736553499,"4":0.11586290912327085,"5":0.08231035147008625,"6":0.03160517596999596,"7":0.07381497958053444,"8":-0.07457282190146386,"9":0.04225934579262208,"10":0.09778969563009897,"11":-0.04569400163750671,"12":0.022082633972839355,"13":0.03963924063459842,"14":0.048182142376403725,"15":0.10767139385309574,"16":-0.008889421650358066,"17":-0.11065360877349428,"18":0.13788457138537255,"19":0.19069079719090182,"20":0.04357727223382938,"21":0.06813470488900678,"22":0.2624466889154075,"23":0.11445271308576457,"24":-0.0905841405138175,"25":0.1267404812720987,"26":0.1211789165030455,"27":0.15072094014217188,"28":0.11360195009235131,"29":0.10971690311877766,"30":-0.13413289540349818,"31":-0.07457910079844958,"32":-0.022369373196898246,"33":-0.0025912616557295935,"34":0.037239928576370956,"35":0.05390422398968859,"36":-0.043021012913053755,"37":0.14642265917653627,"38":-0.0015612824556996913,"39":-0.06135369857512818,"40":0.005932720304744034,"41":-0.00970523639172119,"42":-0.12432127009121657,"43":-0.059582836122087805,"44":0.1746783836207619,"45":0.14908329501279846,"46":0.03026812235445157,"47":0.06872173267423852,"48":-0.1802990733584114,"49":-0.13139569548225988,"50":0.1940633486541939,"51":-0.022817754018007314,"52":-0.10034479990292529,"53":0.011832469058351783,"54":0.12280899061626285,"55":-0.03860747742724781,"56":-0.02246600950890043,"57":0.10063586774168533,"58":0.14815539745049924,"59":-0.07867916870934644,"60":0.18809555466893144,"61":-0.05399206084256383,"62":0.06562844615995808,"63":-0.03980826012147635,"64":0.113840075629451,"65":-0.02037770810535756,"66":0.2228306729797081,"67":0.14652601566046328,"68":0.03553526220668803,"69":0.1853931556685601,"70":0.12552189416907186,"71":0.1470672869882964,"72":-0.02807499412250008,"73":0.04650933575196638,"74":-0.05727112157093233,"75":-0.11242269172871365,"76":0.060400900551219286,"77":0.057983899876678464,"78":0.12026793993931541,"79":0.10201658432460738,"80":-0.06776138863976379,"81":-0.054839734107795024,"82":0.16521198320319863,"83":0.019522643097695414,"84":-0.021069354280241506,"85":-0.021639272360537642,"86":-0.07312244127607355,"87":-0.0325979480869448,"88":0.06330692602128205,"89":0.047812626340504115,"90":0.021379786680483206,"91":0.018534181984634867,"92":-0.18587373283515474,"93":-0.09120092517269648,"94":0.027009749212210638,"95":0.09775468982542278,"96":0.10891164312462338,"97":-0.029986708214309214,"98":0.019112904051181327,"99":-0.015192604091532424,"100":0.05208314957436708,"101":0.05603067271602667,"102":0.04233507095014187,"103":0.08354066754443651,"104":0.1294456256871995,"105":0.03210488798225327,"106":0.008299083076607037,"107":-0.08137437670932063,"108":-0.1038578228125941,"109":0.045461732687689736,"110":-0.0032547190787641225,"111":0.036617592771189214,"112":0.003526717539648108,"113":-0.011137066317477233,"114":-0.030632152753274303,"115":-0.1649595539958074,"116":0.06502680768880997,"117":-0.03296900223276125,"118":-0.003274736500600178,"119":-0.054970781839047085,"120":0.03890875034066928,"121":0.0769210896974439,"122":0.15786199557847902,"123":-0.057122165254375065,"124":-0.09964531200876292,"125":-0.02620326421297275,"126":0.019986057331020626,"127":0.07668124323172658,"128":0.06356554361490055,"129":0.02953701649923868,"130":0.0012664306918037547,"131":0.011906172064056038,"132":0.09724273883676073,"133":0.029832891884707103,"134":0.028258726312474065,"135":0.20583758909015654,"136":0.007509613168726446,"137":0.035466706764076886,"138":0.06124888870935555,"139":0.01547377244416232,"140":0.031480555151164706,"141":-0.005049836798604334,"142":0.05388989545520498,"143":0.0618209729879373,"144":0.025542253526668335,"145":0.008222865198726973,"146":0.06778179883469561,"147":-0.022298756998169796,"148":0.06733387827977917,"149":0.04479034408763768,"150":0.19006195477669077,"151":0.019317401364442432,"152":0.030555579303609796,"153":0.026363234730860684,"154":0.031228981309512745,"155":-0.14081090550706796,"156":0.06668451529526376,"157":0.0375575174670771,"158":-0.05696275980524647,"159":0.03653560297062723,"160":0.1360146468863129,"161":0.10192797415323916,"162":0.0615309753433581,"163":0.011065358013814383,"164":-0.11776480018310699,"165":0.13408916170990176,"166":-0.02901007594125475,"167":-0.014099397922298584,"168":0.01490210298977412,"169":0.027189344969693465,"170":-0.012389810545116372,"171":-0.0801879640168806,"172":-0.05145618533222746,"173":-0.07697860481453744,"174":0.04153397156072781,"175":0.015489312996057686,"176":-0.020109740266130913,"177":-0.10988943968622611,"178":-0.16830205980121152,"179":0.000004468354545654098,"180":0.04274510787519884,"181":-0.056215814059178824,"182":0.07835510417960688,"183":-0.022865920579333565,"184":0.01871939501412284,"185":0.09347898403555707,"186":0.11593890563605828,"187":-0.0015326584291430422,"188":0.02816398628368826,"189":0.009227717261739288,"190":0.010754894332872016,"191":0.07168553395111929,"192":0.0973447655578566,"193":0.07544804793956839,"194":-0.0027885800328743713,"195":0.017532752988140363,"196":0.016924396966128373,"197":0.061876514054689795,"198":0.11100285638490037,"199":-0.06649932940576592,"200":0.012095750477081058,"201":-0.037078218503450146,"202":0.041524916214573215,"203":0.06429608846208203,"204":0.017979257018109,"205":0.009045709148693876,"206":-0.012165722231862817,"207":0.05820310357519191,"208":0.015277785922768567,"209":-0.062168472296586466,"210":0.02618918801158001,"211":0.03157343731155659,"212":-0.031504538043280246,"213":0.059988806361410095,"214":0.0868242940491617,"215":-0.006815799864575128,"216":0.002888622355652896,"217":0.10844798643916227,"218":-0.00971649819915437,"219":0.055198244317374315,"220":0.023205379319022165,"221":0.08642219793609907,"222":-0.04486605251950252,"223":-0.0022532633438419733,"224":-0.024895497054598995,"225":0.02103073845099142,"226":0.0016488413502154845,"227":0.08667702092712787,"228":-0.012949095268101719,"229":0.04286684072212981,"230":0.002643159407556774,"231":-0.0005896923505520551,"232":-0.028078752112171666,"233":-0.04304149917559691,"234":0.015298228388748787,"235":0.03749820877111419,"236":0.0919367769557531,"237":0.11533867548568624,"238":0.0642585893414133,"239":0.04759179953471531,"240":-0.12517025412971095,"241":0.02839818282429872,"242":0.0003897165058564468,"243":-0.11713227833995922,"244":-0.12438421183940418,"245":-0.004596926522252736,"246":0.037628765869483674,"247":0.054572001500465324,"248":-0.018896986277323512,"249":0.1127268957774178,"250":-0.03667030253615663,"251":-0.1397036971807743,"252":0.12131726882971568,"253":-0.0561926837813903,"254":0.06076267093106807,"255":0.08392294978960765,"256":0.08153060715696303,"257":0.13874857150993222,"258":-0.018789046855883392,"259":0.12434963794753454,"260":-0.06754895436447741,"261":0.05328858292501488,"262":-0.08243725883504324,"263":0.006829694639682373,"264":-0.0030994685351679887,"265":0.1412279950142395,"266":-0.054970760713552,"267":0.06474174040276487,"268":0.09486111844036488,"269":0.053239713695786416,"270":0.0601275694941897,"271":0.058828298157620404,"272":-0.033144339402556657,"273":-0.05752612627389595,"274":0.04948407023949731,"275":-0.012001468005327887,"276":-0.018033433651270386,"277":0.06610522921254887,"278":0.038117219729060556,"279":-0.029976200115960958,"280":0.016987247407046935,"281":0.08430652493015835,"282":0.009765578655343849,"283":0.06683799903846095,"284":0.04182378283925497,"285":0.00442991826973083,"286":-0.005351126135685005,"287":0.18920684681873978,"288":-0.0004035785556362329,"289":0.046809143745673444,"290":0.032858995464682905,"291":0.09625955317769838,"292":0.04725826198019749,"293":0.07527638480070896,"294":-0.019647697779234512,"295":0.022766768940625515,"296":0.04757671255177741,"297":0.13401738913530353,"298":-0.01654655615720769,"299":-0.07955641105474932,"300":0.027207314096054216,"301":0.038534495938527945,"302":0.07885561975409577,"303":0.11621666296276789,"304":-0.035677021227689246,"305":-0.05751225089012139,"306":0.07356873585082303,"307":0.06850495386579464,"308":0.00659142070377301,"309":0.05163463959484311,"310":0.022374329149956577,"311":-0.11938524774329222,"312":0.0017092135696963205,"313":0.06828172987672379,"314":0.10518022556005079,"315":-0.010953169006979891,"316":0.04260734947321786,"317":0.04309500893324566,"318":0.002359971580140753,"319":0.0000355867857606805,"320":0.051836256165124654,"321":0.022940102858110902,"322":0.17346701336408313,"323":-0.0414355433535738,"324":-0.02316513867185813,"325":0.09243679452854534,"326":-0.06444394250801654,"327":0.0653094743575969,"328":0.04660057653279631,"329":0.11090979164151839,"330":-0.11989007467854125,"331":-0.266171847509633,"332":-0.0166890945714794,"333":0.133553944942132,"334":0.052133621811920064,"335":0.04648113294896299,"336":-0.011820051665931756,"337":0.049706008592157014,"338":-0.07958600335461567,"339":-0.10326734174932538,"340":0.038391871947984935,"341":-0.10219389237448434,"342":0.11545429945543052,"343":-0.21413859518950343,"344":0.07044134305196002,"345":0.10917897846416949,"346":0.05615913471347522,"347":-0.20433183569591076,"348":-0.04454749291436269,"349":-0.15219516961051488,"350":0.15028154236368407,"351":0.13647526821876152,"352":0.03254565565502376,"353":0.09748556076776563,"354":-0.004056399790468113,"355":0.00806823715170717,"356":0.031215208332421827,"357":0.10351003147148687,"358":-0.0751110932116358,"359":0.02137496055380372,"360":-0.061149033066540424,"361":-0.02490228514742747,"362":0.0790792616852057,"363":-0.1284025529572914,"364":0.005455161130429983,"365":0.08750894519233268,"366":0.12587417719983213,"367":0.1077242886687881,"368":0.025074725748963467,"369":-0.10381250951499875,"370":0.0831853946310967,"371":-0.018754251660411957,"372":0.11538377503755051,"373":-0.03882619119270008,"374":0.03430309177415749,"375":-0.02605278659166227,"376":0.01565781167144531,"377":0.02124562572695048,"378":-0.013792092006602712,"379":-0.021174331216372154,"380":0.024956416638808543,"381":0.024491978567705575,"382":0.10911829708244361,"383":0.05961475515428387,"384":0.11063504626942444,"385":0.07251993397258563,"386":0.11792437511247718,"387":0.138372484957006,"388":-0.029453773492179737,"389":0.046808904246738794,"390":0.10094436580796999,"391":0.0001889247821216819,"392":0.13199139487667286,"393":0.0026794774211648244,"394":-0.04693227423914589,"395":0.10416844743374304,"396":-0.018025560953503123,"397":0.011755599085101645,"398":0.04386913707949639,"399":0.05759144351777643,"400":0.045740910825744524,"401":0.08719813670056013,"402":0.05997894902578193,"403":0.04572699371729429,"404":0.06824462708214829,"405":0.10074582464997416,"406":0.09473052871956757,"407":0.09040979745059949,"408":-0.0852286453239413,"409":0.04018477562215135,"410":-0.018577295240991908,"411":-0.0200473201402877,"412":-0.022115120289435224,"413":0.10924654769150943,"414":-0.026622567793911787,"415":0.01889873596478219,"416":0.16941932174849633,"417":-0.02211228751710091,"418":-0.0014738388350774177,"419":0.12519675269296837,"420":0.028656133924190696,"421":0.16322944973509002,"422":-0.07078481568384129,"423":-0.19277252831354827,"424":0.022260755365149182,"425":-0.02080686724415638,"426":-0.08896153268057963,"427":0.13352456044258348,"428":0.06945117360942499,"429":0.0988367850079929,"430":0.09848664675403823,"431":0.0620630599228524,"432":0.002968261279267168,"433":-0.010936560710423442,"434":0.10583904667530526,"435":0.08140818640313818,"436":-0.0631716338714212,"437":0.06427422116782636,"438":0.05483114953354097,"439":-0.0457025924869584,"440":-0.05736773213931201,"441":0.0349983798009857,"442":0.08941668973707581,"443":-0.03997634566800396,"444":0.07706854508247683,"445":0.035454376928809976,"446":0.1615662354628969,"447":0.08258467941641837,"448":0.1514030032294083,"449":-0.030310873271887393,"450":0.07468310452190893,"451":0.08892211587081132,"452":-0.016886428982159904,"453":0.19909250254264169,"454":0.1106605392375566,"455":0.03126788765682867,"456":0.05408980471896866,"457":-0.08600711606766501,"458":0.009319697352698414,"459":0.004574426258835013,"460":0.05609353969302006,"461":0.06332611380384706,"462":0.04859464947423401,"463":0.068600210402131,"464":-0.05411339846977055,"465":-0.04202025233822623,"466":0.09372888604117058,"467":0.028356415860203318,"468":0.13371786374847064,"469":0.1545219538066312,"470":0.04882874968493268,"471":0.04931771202126813,"472":0.15207191183366106,"473":0.13485710662536857,"474":0.06761230594093799,"475":0.07400232393068622,"476":-0.03278986783261733,"477":-0.03198105984017633,"478":-0.003106775963049822,"479":0.08058547417380456,"480":0.015912107111400377,"481":0.07222405419982927,"482":-0.07399975998705567,"483":0.08885208167340929,"484":-0.181968721098843,"485":-0.1076868926575657,"486":0.08451384611690316,"487":0.07398720275437357,"488":0.1712911860813577,"489":-0.2188176749645075,"490":-0.1884467773357924,"491":0.1390973565956885,"492":-0.02719437920525368,"493":0.14591877934574948,"494":0.07520409060331362,"495":0.08034968811151517,"496":0.10111547004427138,"497":0.17295469342434075,"498":-0.0006181634863997607,"499":-0.07831991292648838,"500":0.16910998352021972,"501":-0.2098772393017412,"502":0.10260123190886193,"503":0.0445543896580478,"504":0.014103274411982397,"505":0.09228877019518139,"506":0.07134149806382199,"507":0.050253910993481296,"508":-0.05707426520431767,"509":-0.08412701279738888,"510":-0.022143346295495275,"511":0.1574869737403959,"512":0.08734500460826727,"513":0.07715125347030086,"514":-0.09560689457098316,"515":0.048994689214601476,"516":-0.09756091229624334,"517":0.10507413560654431,"518":-0.08855647430174234,"519":-0.08801904298195973,"520":0.018220018066473123,"521":-0.13123274818902958,"522":-0.0635521324163001,"523":-0.08567655849493959,"524":0.013140201751192968,"525":0.12600344536759617,"526":0.09316384398276296,"527":0.0043963759279761535,"528":-0.012503327712700515,"529":-0.0011999490201111036,"530":-0.1104463008148735,"531":0.0911936556997354,"532":0.07898042046371079,"533":0.06486030280189713,"534":-0.06110781023359004,"535":-0.1486724233275819,"536":0.049819972570564655,"537":0.07811308706012272,"538":0.11552190550975483,"539":-0.1738032005590201,"540":0.05631194312734463,"541":-0.03249550187201443,"542":0.10751041770522411,"543":0.11480971004025102,"544":-0.002309759288198535,"545":0.18307464418327407,"546":-0.012327033900023637,"547":0.0564227475975873,"548":-0.14722665794550574,"549":0.10724717417327204,"550":-0.05111538897040109,"551":-0.04726262130607837,"552":0.006983089934987472,"553":-0.07084155055404863,"554":-0.023669950468118612,"555":-0.05891318132799113,"556":-0.06277637627872368,"557":0.1168139265489496,"558":0.19485654578621167,"559":0.051831439120611486,"560":-0.13749692238288805,"561":-0.015421889183728768,"562":-0.16588826243958368,"563":0.02571034099899615,"564":0.09234442645708144,"565":-0.038313459387103385,"566":0.05529118310004109,"567":-0.06614258420094289,"568":-0.0537024397512602,"569":0.07675424787627429,"570":0.15538082833428815,"571":-0.025455447225404295,"572":-0.05848610846719294,"573":-0.03808965681279827,"574":0.047551376035299346,"575":0.13884094759008622,"576":-0.0054038479446764,"577":0.11832862241233158,"578":-0.09912480489425364,"579":0.0658877950408366,"580":0.023780690321708337,"581":0.023843329529800138,"582":0.13351673764208102,"583":0.11361961163295399,"584":-0.04543331845188519,"585":-0.04559841300998654,"586":0.036772753715978414,"587":-0.014458275665979693,"588":0.07378786393787312,"589":0.06586785047909595,"590":-0.012599075472676233,"591":0.10302888801997238,"592":0.011112022432587758,"593":-0.07454432255806684,"594":0.10338819260568875,"595":0.11134184166895685,"596":0.0748405079397711,"597":0.09021427834860292,"598":0.21851967051341448,"599":0.03160663494718966,"600":-0.07511423451819418,"601":0.1189910417432913,"602":0.03747885144451616,"603":0.16498585994124165,"604":-0.04764363659203114,"605":0.004327019348845618,"606":-0.16824729694994228,"607":-0.0819109102381213,"608":0.10206168705318223,"609":-0.11205745307326678,"610":0.15375253537289982,"611":0.12909682791084306,"612":-0.01147401802648505,"613":0.12073315337930482,"614":-0.0009918380235866523,"615":-0.07145602702129651,"616":-0.021982800211261165,"617":0.004173211755881266,"618":-0.1830171456900075,"619":-0.1039529698616879,"620":0.1104023410319705,"621":-0.022466427794837752,"622":0.0392641373448588,"623":0.054848375149742785,"624":-0.08456953546401282,"625":-0.15888102113485927,"626":0.09601674706571936,"627":-0.008116285990166889,"628":-0.14622436796277039,"629":0.0498605054870612,"630":0.03159606580359964,"631":-0.06286955260707545,"632":0.001977352318166647,"633":0.019772749565435847,"634":0.09904649016858871,"635":-0.13364735256664328,"636":0.21502141023094773,"637":-0.04520266312253487,"638":0.08395126766593493,"639":-0.005321741835601466}},{"sx":1,"sy":1,"depth":640,"w":{"0":-0.0021909437835220262,"1":-0.014173945204957648,"2":0.002929895839557619,"3":-0.01801687209572255,"4":-0.025186297214976717,"5":0.003226980268581622,"6":-0.0005817541031673912,"7":0.00015430753683164827,"8":-0.028173552774505214,"9":-0.0014035563798164591,"10":-0.0002968144922053703,"11":-0.00017901505271907897,"12":0.01263523901305912,"13":0.016133245302631122,"14":-0.011821119479114931,"15":-0.049480077029322236,"16":-0.0018451977288671596,"17":-0.0009763043997905512,"18":-0.0004694655269562919,"19":-0.001834922663680633,"20":-0.0014393305026142447,"21":0.002190618685437875,"22":0.00794372284107796,"23":-0.006262111911386136,"24":0.02026162855846038,"25":0.0003261032565851955,"26":0.01604742562882752,"27":-0.0009005382653165145,"28":-8.373047464171434e-7,"29":-0.0032563026616935645,"30":-0.01387801975826016,"31":-0.040182988881251984,"32":-0.0012813920369955365,"33":-0.02014720264978933,"34":0.0038831422341788343,"35":0.009277863115447668,"36":-0.0022007469664907693,"37":-0.00047533169967550553,"38":0.0011634706156441266,"39":-0.00039824362099250633,"40":-0.005950140156900914,"41":0.00011277110624630176,"42":0.0004276189170064012,"43":0.003936330153007632,"44":-0.014631659532896557,"45":-0.0017079653325330533,"46":-0.021037070542029315,"47":-0.005386408374204288,"48":-0.01004178970120825,"49":-0.00981479828089517,"50":0.015973119500898334,"51":-0.0022580030931978958,"52":0.006532165285510028,"53":0.00040921691499614743,"54":0.00033994333696151115,"55":-0.0000255926706530505,"56":-0.0006142950496963867,"57":-0.0035627143500791443,"58":-0.0003568806360299335,"59":-0.009643054231190546,"60":-0.00000418115411762282,"61":0.0104686704670141,"62":-0.011172226097222739,"63":-0.015177445993263245,"64":0.001800330752780151,"65":0.005396273959740169,"66":-0.0011933287591318433,"67":0.016896152086418446,"68":-0.0005857477289617627,"69":0.0004333962479569743,"70":-0.00034957642308604313,"71":0.005832485562472285,"72":-0.014310208896758986,"73":-0.00003261836160151059,"74":-0.00022750544871323969,"75":-0.003556840166221866,"76":-0.002554391978635765,"77":0.030468455688735283,"78":0.03375704831134206,"79":-0.042760537119264024,"80":0.00005205507635150296,"81":-0.007752995109416143,"82":-0.0024733701397489844,"83":0.007613698328019266,"84":0.008096919920798588,"85":1.7841579332337556e-12,"86":-0.001342507822598408,"87":-0.00024154219090966565,"88":0.0010156755900680224,"89":-0.019392626633097088,"90":-0.0024979192835873046,"91":-0.001849329474516255,"92":-0.00006345653974572486,"93":-0.005317331647606949,"94":-0.0038362285693689323,"95":-0.0038036484671945354,"96":-0.014256723931910166,"97":-0.004831227466571844,"98":-7.96708700109323e-13,"99":-0.0077657563689399875,"100":-0.00002605843639136513,"101":0.00021761648415444135,"102":-0.000051034594644962725,"103":-0.001482479682679421,"104":-0.00044329517294642716,"105":-0.0010890137075721018,"106":-7.127768966216276e-7,"107":-0.016787889961714025,"108":0.003337413670663901,"109":0.03945963488154125,"110":0.0051739189899599036,"111":0.008061952092639303,"112":-0.00493432407042344,"113":0.010301088885908688,"114":-0.000008746844534240949,"115":-0.003737296253778603,"116":0.016549507162274376,"117":0.00004236406065341913,"118":-0.005304212500158794,"119":-0.0032170452682215283,"120":0.00957760392412411,"121":0.036588313627573574,"122":-0.03319809668042694,"123":-0.00006011362601066098,"124":-5.663710932222829e-10,"125":-0.005034241793781368,"126":-0.0008243015527395145,"127":-0.003520103843347358,"128":-0.0006201791302263555,"129":0.008288911734187132,"130":0.004449210973423072,"131":0.007695405252817501,"132":-0.00016137075042960583,"133":-0.003814470244372064,"134":-9.878334686847433e-7,"135":-0.0017985665139677995,"136":-0.01518959767942134,"137":-0.0025219093930032624,"138":0.00032165198118907715,"139":0.007695277841116727,"140":-0.0038880692387695853,"141":-0.0002817236124101636,"142":-0.020908558837597183,"143":-0.011632773601816648,"144":-0.0006545308661337631,"145":-0.00027381380637520974,"146":-0.004171202186183581,"147":-0.003309011402537862,"148":0.003822245683949302,"149":0.00029792221401640534,"150":0.016714631641090882,"151":0.002865184091841721,"152":0.011812532547527253,"153":-0.00923179850343255,"154":0.010930105869502355,"155":-0.0012229235531251426,"156":-0.00016310382354972063,"157":0.0028614923871074956,"158":0.00020564776158799058,"159":-0.0007551559611322713,"160":-0.029120627517427125,"161":-0.011789943819956338,"162":0.008132208646354467,"163":0.004655531933634376,"164":-0.00187845462979839,"165":-0.0010394993530458193,"166":0.00016680764852715406,"167":-0.010141832208489146,"168":-0.011019640446776686,"169":-1.5744132730091747e-34,"170":-0.0006478136572857448,"171":-0.0009264226489709038,"172":-0.005679908701292483,"173":-0.002768603680416681,"174":0.0007760438509056943,"175":-0.020276626718851075,"176":0.00013765797506583513,"177":0.008399054347445305,"178":-0.0003896880493080245,"179":-0.00004241349666104259,"180":0.013185745613112332,"181":0.0016453057981432918,"182":0.004183800775908464,"183":-0.0008795455228134158,"184":0.009576523096363272,"185":-0.016557883571666973,"186":-0.019670057153602125,"187":0.005021306594550384,"188":-0.00006614908719845979,"189":-0.0068459808411793395,"190":0.004725302817631966,"191":-0.006425420431273826,"192":-0.003112684899132497,"193":-0.0032604495541614397,"194":-0.001702084459210987,"195":-0.049003392309944764,"196":-9.941553697651153e-9,"197":-0.0072322766984605855,"198":-0.0007837233920272923,"199":-0.0021614782402766698,"200":-0.050059382864290354,"201":-7.840237951024398e-15,"202":-4.164298187780982e-16,"203":-0.0035654028334300212,"204":-0.01743259209128487,"205":-0.003340701212879727,"206":-0.002883811489549934,"207":0.0007461097651915463,"208":-0.01307449282216229,"209":-0.004389840456499687,"210":0.005817585747079506,"211":-0.0014464745305620642,"212":-0.001934777953611122,"213":0.00003118491744248542,"214":0.021598603392571983,"215":-0.000025818848306571096,"216":-0.02505602166128815,"217":-0.03358511458525957,"218":-0.03556946028605762,"219":-0.0003322705043917242,"220":-7.924293782491158e-21,"221":-0.002706845439708636,"222":0.003427758602864857,"223":0.011736098446029278,"224":0.004007723660191057,"225":-0.00008404570940090615,"226":0.001998818516654519,"227":-0.013382141658227448,"228":0.016396470786855195,"229":0.00025018731767641715,"230":0.004613882750068627,"231":0.030314664490346553,"232":0.06331705505504305,"233":-0.003703521868411957,"234":0.0006485095497210001,"235":0.0018929039450636695,"236":-0.009857689697909766,"237":0.01273626768483176,"238":0.01030828191593971,"239":0.007026225074665487,"240":-0.005047000713358692,"241":-0.0016529515551540546,"242":0.002240719676221291,"243":-7.103909083436004e-11,"244":-0.0005745702875051275,"245":0.000016687218665102208,"246":0.0015398376269892674,"247":0.0028231633633402408,"248":0.0015586520945168121,"249":-0.025563882027381857,"250":-0.028846112554542024,"251":-0.003727573905303197,"252":-3.999537599714127e-11,"253":0.0033815726676408634,"254":-0.01310320090874858,"255":-0.0015977060720174375,"256":-0.030177134763778205,"257":0.0002068527052377708,"258":-0.007536633198409613,"259":-0.03006826183725177,"260":0.0039013807776057227,"261":0.020095835445018643,"262":-0.00034702537288060865,"263":0.0035904744411941495,"264":-0.005662055362816251,"265":-0.0006891800996582881,"266":-1.1151837286967323e-14,"267":-0.0013199904960432582,"268":0.0019877307047360205,"269":0.0005588297775955997,"270":-0.032101131744163416,"271":0.02708027371801292,"272":-0.003381127351164707,"273":0.011034789725375894,